{"learner":{"attributes":{},"feature_names":[],"feature_types":[],"gradient_booster":{"model":{"cats":{"enc":[],"feature_segments":[],"sorted_idx":[]},"gbtree_model_param":{"num_parallel_tree":"1","num_trees":"600"},"iteration_indptr":[0,1,2,3,4,5,6,7,8,9,10,11,12,13,14,15,16,17,18,19,20,21,22,23,24,25,26,27,28,29,30,31,32,33,34,35,36,37,38,39,40,41,42,43,44,45,46,47,48,49,50,51,52,53,54,55,56,57,58,59,60,61,62,63,64,65,66,67,68,69,70,71,72,73,74,75,76,77,78,79,80,81,82,83,84,85,86,87,88,89,90,91,92,93,94,95,96,97,98,99,100,101,102,103,104,105,106,107,108,109,110,111,112,113,114,115,116,117,118,119,120,121,122,123,124,125,126,127,128,129,130,131,132,133,134,135,136,137,138,139,140,141,142,143,144,145,146,147,148,149,150,151,152,153,154,155,156,157,158,159,160,161,162,163,164,165,166,167,168,169,170,171,172,173,174,175,176,177,178,179,180,181,182,183,184,185,186,187,188,189,190,191,192,193,194,195,196,197,198,199,200,201,202,203,204,205,206,207,208,209,210,211,212,213,214,215,216,217,218,219,220,221,222,223,224,225,226,227,228,229,230,231,232,233,234,235,236,237,238,239,240,241,242,243,244,245,246,247,248,249,250,251,252,253,254,255,256,257,258,259,260,261,262,263,264,265,266,267,268,269,270,271,272,273,274,275,276,277,278,279,280,281,282,283,284,285,286,287,288,289,290,291,292,293,294,295,296,297,298,299,300,301,302,303,304,305,306,307,308,309,310,311,312,313,314,315,316,317,318,319,320,321,322,323,324,325,326,327,328,329,330,331,332,333,334,335,336,337,338,339,340,341,342,343,344,345,346,347,348,349,350,351,352,353,354,355,356,357,358,359,360,361,362,363,364,365,366,367,368,369,370,371,372,373,374,375,376,377,378,379,380,381,382,383,384,385,386,387,388,389,390,391,392,393,394,395,396,397,398,399,400,401,402,403,404,405,406,407,408,409,410,411,412,413,414,415,416,417,418,419,420,421,422,423,424,425,426,427,428,429,430,431,432,433,434,435,436,437,438,439,440,441,442,443,444,445,446,447,448,449,450,451,452,453,454,455,456,457,458,459,460,461,462,463,464,465,466,467,468,469,470,471,472,473,474,475,476,477,478,479,480,481,482,483,484,485,486,487,488,489,490,491,492,493,494,495,496,497,498,499,500,501,502,503,504,505,506,507,508,509,510,511,512,513,514,515,516,517,518,519,520,521,522,523,524,525,526,527,528,529,530,531,532,533,534,535,536,537,538,539,540,541,542,543,544,545,546,547,548,549,550,551,552,553,554,555,556,557,558,559,560,561,562,563,564,565,566,567,568,569,570,571,572,573,574,575,576,577,578,579,580,581,582,583,584,585,586,587,588,589,590,591,592,593,594,595,596,597,598,599,600],"tree_info":[0,0,0,0,0,0,0,0,0,0,0,0,0,0,0,0,0,0,0,0,0,0,0,0,0,0,0,0,0,0,0,0,0,0,0,0,0,0,0,0,0,0,0,0,0,0,0,0,0,0,0,0,0,0,0,0,0,0,0,0,0,0,0,0,0,0,0,0,0,0,0,0,0,0,0,0,0,0,0,0,0,0,0,0,0,0,0,0,0,0,0,0,0,0,0,0,0,0,0,0,0,0,0,0,0,0,0,0,0,0,0,0,0,0,0,0,0,0,0,0,0,0,0,0,0,0,0,0,0,0,0,0,0,0,0,0,0,0,0,0,0,0,0,0,0,0,0,0,0,0,0,0,0,0,0,0,0,0,0,0,0,0,0,0,0,0,0,0,0,0,0,0,0,0,0,0,0,0,0,0,0,0,0,0,0,0,0,0,0,0,0,0,0,0,0,0,0,0,0,0,0,0,0,0,0,0,0,0,0,0,0,0,0,0,0,0,0,0,0,0,0,0,0,0,0,0,0,0,0,0,0,0,0,0,0,0,0,0,0,0,0,0,0,0,0,0,0,0,0,0,0,0,0,0,0,0,0,0,0,0,0,0,0,0,0,0,0,0,0,0,0,0,0,0,0,0,0,0,0,0,0,0,0,0,0,0,0,0,0,0,0,0,0,0,0,0,0,0,0,0,0,0,0,0,0,0,0,0,0,0,0,0,0,0,0,0,0,0,0,0,0,0,0,0,0,0,0,0,0,0,0,0,0,0,0,0,0,0,0,0,0,0,0,0,0,0,0,0,0,0,0,0,0,0,0,0,0,0,0,0,0,0,0,0,0,0,0,0,0,0,0,0,0,0,0,0,0,0,0,0,0,0,0,0,0,0,0,0,0,0,0,0,0,0,0,0,0,0,0,0,0,0,0,0,0,0,0,0,0,0,0,0,0,0,0,0,0,0,0,0,0,0,0,0,0,0,0,0,0,0,0,0,0,0,0,0,0,0,0,0,0,0,0,0,0,0,0,0,0,0,0,0,0,0,0,0,0,0,0,0,0,0,0,0,0,0,0,0,0,0,0,0,0,0,0,0,0,0,0,0,0,0,0,0,0,0,0,0,0,0,0,0,0,0,0,0,0,0,0,0,0,0,0,0,0,0,0,0,0,0,0,0,0,0,0,0,0,0,0,0,0,0,0,0,0,0,0,0,0,0,0,0,0,0,0,0,0,0,0,0,0,0,0,0,0,0,0,0,0,0,0,0,0,0,0,0,0,0,0,0,0,0,0,0,0,0,0,0,0,0,0,0,0,0,0,0,0,0,0,0,0,0,0,0,0,0,0,0,0,0,0,0,0,0,0,0,0,0,0,0],"trees":[{"base_weights":[-1.5991171E-4,-8.9361176E-2,1.1184371E-2,-1.2711565E-1,3.0827436E-3,-6.1437665E-3,-6.9870795E-3],"categories":[],"categories_nodes":[],"categories_segments":[],"categories_sizes":[],"default_left":[0,0,0,0,0,0,0],"id":0,"left_children":[1,3,-1,5,-1,-1,-1],"loss_changes":[1.7845323E3,3.643699E2,0E0,2.7199707E0,0E0,0E0,0E0],"parents":[2147483647,0,0,1,1,3,3],"right_children":[2,4,-1,6,-1,-1,-1],"split_conditions":[1E0,1E0,1.1184371E-2,1E0,3.0827436E-3,-6.1437665E-3,-6.9870795E-3],"split_indices":[55,77,0,75,0,0,0],"split_type":[0,0,0,0,0,0,0],"sum_hessian":[8.937E4,6.3905E4,2.5465E4,5.1124E4,1.2781E4,3.8279E4,1.2845E4],"tree_param":{"num_deleted":"0","num_feature":"79","num_nodes":"7","size_leaf_vector":"1"}},{"base_weights":[1.1422533E-4,-8.484474E-2,1.0621525E-2,-1.20566264E-1,2.933008E-3,-5.827169E-3,-6.633853E-3],"categories":[],"categories_nodes":[],"categories_segments":[],"categories_sizes":[],"default_left":[0,0,0,0,0,0,0],"id":1,"left_children":[1,3,-1,5,-1,-1,-1],"loss_changes":[1.6192505E3,3.2866397E2,0E0,2.4855957E0,0E0,0E0,0E0],"parents":[2147483647,0,0,1,1,3,3],"right_children":[2,4,-1,6,-1,-1,-1],"split_conditions":[1E0,1E0,1.0621525E-2,1E0,2.933008E-3,-5.827169E-3,-6.633853E-3],"split_indices":[55,77,0,75,0,0,0],"split_type":[0,0,0,0,0,0,0],"sum_hessian":[8.9766E4,6.4112E4,2.5654E4,5.1334E4,1.2778E4,3.8542E4,1.2792E4],"tree_param":{"num_deleted":"0","num_feature":"79","num_nodes":"7","size_leaf_vector":"1"}},{"base_weights":[-5.50347E-4,-8.086814E-2,1.0093794E-2,-1.1479208E-1,2.7420933E-3,-5.5490225E-3,-6.3062957E-3],"categories":[],"categories_nodes":[],"categories_segments":[],"categories_sizes":[],"default_left":[0,0,0,0,0,0,0],"id":2,"left_children":[1,3,-1,5,-1,-1,-1],"loss_changes":[1.4565112E3,2.9528137E2,0E0,2.2026367E0,0E0,0E0,0E0],"parents":[2147483647,0,0,1,1,3,3],"right_children":[2,4,-1,6,-1,-1,-1],"split_conditions":[1E0,1E0,1.0093794E-2,1E0,2.7420933E-3,-5.5490225E-3,-6.3062957E-3],"split_indices":[55,77,0,75,0,0,0],"split_type":[0,0,0,0,0,0,0],"sum_hessian":[8.9583E4,6.4136E4,2.5447E4,5.131E4,1.2826E4,3.8405E4,1.2905E4],"tree_param":{"num_deleted":"0","num_feature":"79","num_nodes":"7","size_leaf_vector":"1"}},{"base_weights":[-9.471352E-5,-7.6725066E-2,9.591378E-3,-1.0897114E-1,2.6638429E-3,-5.2670534E-3,-5.99219E-3],"categories":[],"categories_nodes":[],"categories_segments":[],"categories_sizes":[],"default_left":[0,0,0,0,0,0,0],"id":3,"left_children":[1,3,-1,5,-1,-1,-1],"loss_changes":[1.3169299E3,2.682678E2,0E0,2.0111084E0,0E0,0E0,0E0],"parents":[2147483647,0,0,1,1,3,3],"right_children":[2,4,-1,6,-1,-1,-1],"split_conditions":[1E0,1E0,9.591378E-3,1E0,2.6638429E-3,-5.2670534E-3,-5.99219E-3],"split_indices":[55,77,0,75,0,0,0],"split_type":[0,0,0,0,0,0,0],"sum_hessian":[8.9542E4,6.3992E4,2.555E4,5.1274E4,1.2718E4,3.8448E4,1.2826E4],"tree_param":{"num_deleted":"0","num_feature":"79","num_nodes":"7","size_leaf_vector":"1"}},{"base_weights":[-2.1615466E-4,-7.275706E-2,9.103944E-3,-1.03471994E-1,2.4884685E-3,-5.0031436E-3,-5.6846575E-3],"categories":[],"categories_nodes":[],"categories_segments":[],"categories_sizes":[],"default_left":[0,0,0,0,0,0,0],"id":4,"left_children":[1,3,-1,5,-1,-1,-1],"loss_changes":[1.1867478E3,2.4160355E2,0E0,1.7772217E0,0E0,0E0,0E0],"parents":[2147483647,0,0,1,1,3,3],"right_children":[2,4,-1,6,-1,-1,-1],"split_conditions":[1E0,1E0,9.103944E-3,1E0,2.4884685E-3,-5.0031436E-3,-5.6846575E-3],"split_indices":[55,77,0,75,0,0,0],"split_type":[0,0,0,0,0,0,0],"sum_hessian":[8.9741E4,6.4196E4,2.5545E4,5.1329E4,1.2867E4,3.8499E4,1.283E4],"tree_param":{"num_deleted":"0","num_feature":"79","num_nodes":"7","size_leaf_vector":"1"}},{"base_weights":[-1.1891071E-4,-6.917176E-2,8.661149E-3,-9.8446876E-2,2.3981933E-3,-4.7607697E-3,-5.4066577E-3],"categories":[],"categories_nodes":[],"categories_segments":[],"categories_sizes":[],"default_left":[0,0,0,0,0,0,0],"id":5,"left_children":[1,3,-1,5,-1,-1,-1],"loss_changes":[1.0710173E3,2.1942633E2,0E0,1.592102E0,0E0,0E0,0E0],"parents":[2147483647,0,0,1,1,3,3],"right_children":[2,4,-1,6,-1,-1,-1],"split_conditions":[1E0,1E0,8.661149E-3,1E0,2.3981933E-3,-4.7607697E-3,-5.4066577E-3],"split_indices":[55,77,0,75,0,0,0],"split_type":[0,0,0,0,0,0,0],"sum_hessian":[8.9475E4,6.3986E4,2.5489E4,5.1192E4,1.2794E4,3.8394E4,1.2798E4],"tree_param":{"num_deleted":"0","num_feature":"79","num_nodes":"7","size_leaf_vector":"1"}},{"base_weights":[1.4360782E-4,-6.571307E-2,8.228977E-3,-5.648635E-2,-5.1268153E-3,-4.5088496E-2,-4.522242E-3,-1.138014E-3,-4.4875075E-3],"categories":[],"categories_nodes":[],"categories_segments":[],"categories_sizes":[],"default_left":[0,0,0,0,0,0,0,0,0],"id":6,"left_children":[1,3,-1,5,-1,7,-1,-1,-1],"loss_changes":[9.6965784E2,2.1716583E1,0E0,1.978482E1,0E0,3.8172356E1,0E0,0E0,0E0],"parents":[2147483647,0,0,1,1,3,3,5,5],"right_children":[2,4,-1,6,-1,8,-1,-1,-1],"split_conditions":[1E0,1E0,8.228977E-3,1E0,-5.1268153E-3,1E0,-4.522242E-3,-1.138014E-3,-4.4875075E-3],"split_indices":[55,75,0,57,0,76,0,0,0],"split_type":[0,0,0,0,0,0,0,0,0],"sum_hessian":[8.9539E4,6.3934E4,2.5605E4,5.1126E4,1.2808E4,3.828E4,1.2846E4,2.5522E4,1.2758E4],"tree_param":{"num_deleted":"0","num_feature":"79","num_nodes":"9","size_leaf_vector":"1"}},{"base_weights":[2.9492057E-5,-6.2113352E-2,7.805542E-3,-8.936175E-2,2.3316338E-3,-9.068358E-2,-4.268875E-3,-9.316165E-2,-4.2851954E-3,-4.8516323E-3,-4.4642305E-3],"categories":[],"categories_nodes":[],"categories_segments":[],"categories_sizes":[],"default_left":[0,0,0,0,0,0,0,0,0,0,0],"id":7,"left_children":[1,3,-1,5,-1,7,-1,9,-1,-1,-1],"loss_changes":[8.694681E2,1.8998688E2,0E0,2.6223755E-1,0E0,4.668579E-1,0E0,3.7678528E-1,0E0,0E0,0E0],"parents":[2147483647,0,0,1,1,3,3,5,5,7,7],"right_children":[2,4,-1,6,-1,8,-1,10,-1,-1,-1],"split_conditions":[1E0,1E0,7.805542E-3,1E0,2.3316338E-3,1E0,-4.268875E-3,1E0,-4.2851954E-3,-4.8516323E-3,-4.4642305E-3],"split_indices":[55,77,0,76,0,63,0,74,0,0,0],"split_type":[0,0,0,0,0,0,0,0,0,0,0],"sum_hessian":[8.964E4,6.4114E4,2.5526E4,5.1268E4,1.2846E4,3.848E4,1.2788E4,2.5682E4,1.2798E4,1.2839E4,1.2843E4],"tree_param":{"num_deleted":"0","num_feature":"79","num_nodes":"11","size_leaf_vector":"1"}},{"base_weights":[2.1872556E-4,-5.8978345E-2,7.4360506E-3,-5.050848E-2,-4.6395017E-3,-3.914872E-2,-4.2368653E-3,-1.8186733E-2,-4.0573995E-3,2.2078974E-3,-4.0427707E-3],"categories":[],"categories_nodes":[],"categories_segments":[],"categories_sizes":[],"default_left":[0,0,0,0,0,0,0,0,0,0,0],"id":8,"left_children":[1,3,-1,5,-1,7,-1,9,-1,-1,-1],"loss_changes":[7.9000305E2,1.8396118E1,0E0,1.997638E1,0E0,3.3965664E1,0E0,1.0056345E2,0E0,0E0,0E0],"parents":[2147483647,0,0,1,1,3,3,5,5,7,7],"right_children":[2,4,-1,6,-1,8,-1,10,-1,-1,-1],"split_conditions":[1E0,1E0,7.4360506E-3,1E0,-4.6395017E-3,1E0,-4.2368653E-3,1E0,-4.0573995E-3,2.2078974E-3,-4.0427707E-3],"split_indices":[55,75,0,74,0,57,0,76,0,0,0],"split_type":[0,0,0,0,0,0,0,0,0,0,0],"sum_hessian":[8.9864E4,6.4252E4,2.5612E4,5.1383E4,1.2869E4,3.8581E4,1.2802E4,2.5737E4,1.2844E4,1.2902E4,1.2835E4],"tree_param":{"num_deleted":"0","num_feature":"79","num_nodes":"11","size_leaf_vector":"1"}},{"base_weights":[2.5423517E-4,6.855023E-2,-5.0962098E-2,7.0549534E-3,-3.8708728E-3,-8.171852E-2,2.0732523E-3,-7.883406E-2,-4.377443E-3,-3.8589302E-3,-4.0236316E-3],"categories":[],"categories_nodes":[],"categories_segments":[],"categories_sizes":[],"default_left":[0,0,0,0,0,0,0,0,0,0,0],"id":9,"left_children":[1,3,5,-1,-1,7,-1,9,-1,-1,-1],"loss_changes":[3.135351E2,4.0679636E2,1.4561644E2,0E0,0E0,6.3946533E-1,0E0,6.3568115E-2,0E0,0E0,0E0],"parents":[2147483647,0,0,1,1,2,2,5,5,7,7],"right_children":[2,4,6,-1,-1,8,-1,10,-1,-1,-1],"split_conditions":[1E0,1E0,1E0,7.0549534E-3,-3.8708728E-3,1E0,2.0732523E-3,1E0,-4.377443E-3,-3.8589302E-3,-4.0236316E-3],"split_indices":[72,57,77,0,0,75,0,74,0,0,0],"split_type":[0,0,0,0,0,0,0,0,0,0,0],"sum_hessian":[8.9634E4,3.8412E4,5.1222E4,2.5659E4,1.2753E4,3.8433E4,1.2789E4,2.5722E4,1.2711E4,1.2819E4,1.2903E4],"tree_param":{"num_deleted":"0","num_feature":"79","num_nodes":"11","size_leaf_vector":"1"}},{"base_weights":[-3.0287026E-4,-5.3850845E-2,6.6943453E-3,-7.681231E-2,1.9411653E-3,-7.451365E-2,-4.183197E-3,-7.5168446E-2,-3.659404E-3,-3.838009E-3,-3.6785055E-3],"categories":[],"categories_nodes":[],"categories_segments":[],"categories_sizes":[],"default_left":[0,0,0,0,0,0,0,0,0,0,0],"id":10,"left_children":[1,3,-1,5,-1,7,-1,9,-1,-1,-1],"loss_changes":[6.4323975E2,1.3615883E2,0E0,8.013916E-1,0E0,2.7832031E-2,0E0,5.9677124E-2,0E0,0E0,0E0],"parents":[2147483647,0,0,1,1,3,3,5,5,7,7],"right_children":[2,4,-1,6,-1,8,-1,10,-1,-1,-1],"split_conditions":[1E0,1E0,6.6943453E-3,1E0,1.9411653E-3,1E0,-4.183197E-3,1E0,-3.659404E-3,-3.838009E-3,-3.6785055E-3],"split_indices":[55,77,0,75,0,76,0,57,0,0,0],"split_type":[0,0,0,0,0,0,0,0,0,0,0],"sum_hessian":[8.9516E4,6.3984E4,2.5532E4,5.1279E4,1.2705E4,3.8406E4,1.2873E4,2.567E4,1.2736E4,1.2838E4,1.2832E4],"tree_param":{"num_deleted":"0","num_feature":"79","num_nodes":"11","size_leaf_vector":"1"}},{"base_weights":[-1.4144799E-4,-5.06455E-2,6.354353E-3,-7.297058E-2,1.9351224E-3,-7.086711E-2,-3.9650346E-3,-3.49353E-3,-3.6425272E-3],"categories":[],"categories_nodes":[],"categories_segments":[],"categories_sizes":[],"default_left":[0,0,0,0,0,0,0,0,0],"id":11,"left_children":[1,3,-1,5,-1,7,-1,-1,-1],"loss_changes":[5.737507E2,1.27502045E2,0E0,6.753235E-1,0E0,7.080078E-2,0E0,0E0,0E0],"parents":[2147483647,0,0,1,1,3,3,5,5],"right_children":[2,4,-1,6,-1,8,-1,-1,-1],"split_conditions":[1E0,1E0,6.354353E-3,1E0,1.9351224E-3,1E0,-3.9650346E-3,-3.49353E-3,-3.6425272E-3],"split_indices":[55,77,0,75,0,74,0,0,0],"split_type":[0,0,0,0,0,0,0,0,0],"sum_hessian":[8.929E4,6.3918E4,2.5372E4,5.114E4,1.2778E4,3.8394E4,1.2746E4,2.5579E4,1.2815E4],"tree_param":{"num_deleted":"0","num_feature":"79","num_nodes":"9","size_leaf_vector":"1"}},{"base_weights":[-1.6163636E-4,5.836912E-2,-4.3974664E-2,6.0568964E-3,-3.314706E-3,-7.030341E-2,1.7527028E-3,-6.774635E-2,-3.7737575E-3,-3.3019732E-3,-3.4713787E-3],"categories":[],"categories_nodes":[],"categories_segments":[],"categories_sizes":[],"default_left":[0,0,0,0,0,0,0,0,0,0,0],"id":12,"left_children":[1,3,5,-1,-1,7,-1,9,-1,-1,-1],"loss_changes":[2.2993008E2,3.003614E2,1.0669798E2,0E0,0E0,5.0357056E-1,0E0,6.931305E-2,0E0,0E0,0E0],"parents":[2147483647,0,0,1,1,2,2,5,5,7,7],"right_children":[2,4,6,-1,-1,8,-1,10,-1,-1,-1],"split_conditions":[1E0,1E0,1E0,6.0568964E-3,-3.314706E-3,1E0,1.7527028E-3,1E0,-3.7737575E-3,-3.3019732E-3,-3.4713787E-3],"split_indices":[72,57,77,0,0,75,0,74,0,0,0],"split_type":[0,0,0,0,0,0,0,0,0,0,0],"sum_hessian":[8.966E4,3.8383E4,5.1277E4,2.5529E4,1.2854E4,3.8463E4,1.2814E4,2.5747E4,1.2716E4,1.2796E4,1.2951E4],"tree_param":{"num_deleted":"0","num_feature":"79","num_nodes":"11","size_leaf_vector":"1"}},{"base_weights":[-1.6074851E-5,-4.593149E-2,5.7515977E-3,-6.594303E-2,1.761777E-3,-6.397E-2,-3.5916977E-3,-6.452032E-2,-3.1429888E-3,-3.2900914E-3,-3.162253E-3],"categories":[],"categories_nodes":[],"categories_segments":[],"categories_sizes":[],"default_left":[0,0,0,0,0,0,0,0,0,0,0],"id":13,"left_children":[1,3,-1,5,-1,7,-1,9,-1,-1,-1],"loss_changes":[4.7185205E2,1.0370268E2,0E0,5.907135E-1,0E0,1.939392E-2,0E0,3.7712097E-2,0E0,0E0,0E0],"parents":[2147483647,0,0,1,1,3,3,5,5,7,7],"right_children":[2,4,-1,6,-1,8,-1,10,-1,-1,-1],"split_conditions":[1E0,1E0,5.7515977E-3,1E0,1.761777E-3,1E0,-3.5916977E-3,1E0,-3.1429888E-3,-3.2900914E-3,-3.162253E-3],"split_indices":[55,77,0,75,0,76,0,63,0,0,0],"split_type":[0,0,0,0,0,0,0,0,0,0,0],"sum_hessian":[8.9322E4,6.3843E4,2.5479E4,5.1216E4,1.2627E4,3.8375E4,1.2841E4,2.5619E4,1.2756E4,1.2753E4,1.2866E4],"tree_param":{"num_deleted":"0","num_feature":"79","num_nodes":"11","size_leaf_vector":"1"}},{"base_weights":[-3.1197556E-5,-4.3870952E-2,5.477512E-3,-6.271061E-2,1.6002633E-3,-6.0883027E-2,-3.4103156E-3,-6.134043E-2,-2.997629E-3,-3.1235057E-3,-3.010431E-3],"categories":[],"categories_nodes":[],"categories_segments":[],"categories_sizes":[],"default_left":[0,0,0,0,0,0,0,0,0,0,0],"id":14,"left_children":[1,3,-1,5,-1,7,-1,9,-1,-1,-1],"loss_changes":[4.3118033E2,9.164183E1,0E0,5.116577E-1,0E0,1.272583E-2,0E0,2.922821E-2,0E0,0E0,0E0],"parents":[2147483647,0,0,1,1,3,3,5,5,7,7],"right_children":[2,4,-1,6,-1,8,-1,10,-1,-1,-1],"split_conditions":[1E0,1E0,5.477512E-3,1E0,1.6002633E-3,1E0,-3.4103156E-3,1E0,-2.997629E-3,-3.1235057E-3,-3.010431E-3],"split_indices":[55,77,0,75,0,76,0,57,0,0,0],"split_type":[0,0,0,0,0,0,0,0,0,0,0],"sum_hessian":[8.9752E4,6.4106E4,2.5646E4,5.1355E4,1.2751E4,3.8548E4,1.2807E4,2.58E4,1.2748E4,1.2885E4,1.2915E4],"tree_param":{"num_deleted":"0","num_feature":"79","num_nodes":"11","size_leaf_vector":"1"}},{"base_weights":[-9.933688E-5,-4.1462086E-2,5.191838E-3,-5.94821E-2,1.5511726E-3,-5.7666074E-2,-3.2460939E-3,-2.8416093E-3,-2.966455E-3],"categories":[],"categories_nodes":[],"categories_segments":[],"categories_sizes":[],"default_left":[0,0,0,0,0,0,0,0,0],"id":15,"left_children":[1,3,-1,5,-1,7,-1,-1,-1],"loss_changes":[3.8538266E2,8.3759995E1,0E0,5.036011E-1,0E0,5.003357E-2,0E0,0E0,0E0],"parents":[2147483647,0,0,1,1,3,3,5,5],"right_children":[2,4,-1,6,-1,8,-1,-1,-1],"split_conditions":[1E0,1E0,5.191838E-3,1E0,1.5511726E-3,1E0,-3.2460939E-3,-2.8416093E-3,-2.966455E-3],"split_indices":[55,77,0,75,0,74,0,0,0],"split_type":[0,0,0,0,0,0,0,0,0],"sum_hessian":[8.9641E4,6.4123E4,2.5518E4,5.1356E4,1.2767E4,3.8511E4,1.2845E4,2.5673E4,1.2838E4],"tree_param":{"num_deleted":"0","num_feature":"79","num_nodes":"9","size_leaf_vector":"1"}},{"base_weights":[-1.1847645E-4,-3.9344642E-2,4.9178503E-3,-5.6426417E-2,1.4479421E-3,-5.475951E-2,-3.069898E-3,-2.6956995E-3,-2.8221223E-3],"categories":[],"categories_nodes":[],"categories_segments":[],"categories_sizes":[],"default_left":[0,0,0,0,0,0,0,0,0],"id":16,"left_children":[1,3,-1,5,-1,7,-1,-1,-1],"loss_changes":[3.4569113E2,7.467213E1,0E0,4.209137E-1,0E0,5.15213E-2,0E0,0E0,0E0],"parents":[2147483647,0,0,1,1,3,3,5,5],"right_children":[2,4,-1,6,-1,8,-1,-1,-1],"split_conditions":[1E0,1E0,4.9178503E-3,1E0,1.4479421E-3,1E0,-3.069898E-3,-2.6956995E-3,-2.8221223E-3],"split_indices":[55,77,0,75,0,74,0,0,0],"split_type":[0,0,0,0,0,0,0,0,0],"sum_hessian":[8.949E4,6.3998E4,2.5492E4,5.1195E4,1.2803E4,3.8349E4,1.2846E4,2.5547E4,1.2802E4],"tree_param":{"num_deleted":"0","num_feature":"79","num_nodes":"9","size_leaf_vector":"1"}},{"base_weights":[5.2743006E-5,-3.728235E-2,4.678706E-3,-5.365338E-2,1.4130537E-3,-5.4477125E-2,-2.5590234E-3,-5.593382E-2,-2.5774369E-3,-2.9208767E-3,-2.673013E-3],"categories":[],"categories_nodes":[],"categories_segments":[],"categories_sizes":[],"default_left":[0,0,0,0,0,0,0,0,0,0,0],"id":17,"left_children":[1,3,-1,5,-1,7,-1,9,-1,-1,-1],"loss_changes":[3.1224945E2,6.858102E1,0E0,1.01379395E-1,0E0,1.6069794E-1,0E0,1.541214E-1,0E0,0E0,0E0],"parents":[2147483647,0,0,1,1,3,3,5,5,7,7],"right_children":[2,4,-1,6,-1,8,-1,10,-1,-1,-1],"split_conditions":[1E0,1E0,4.678706E-3,1E0,1.4130537E-3,1E0,-2.5590234E-3,1E0,-2.5774369E-3,-2.9208767E-3,-2.673013E-3],"split_indices":[55,77,0,76,0,57,0,74,0,0,0],"split_type":[0,0,0,0,0,0,0,0,0,0,0],"sum_hessian":[8.9426E4,6.3912E4,2.5514E4,5.1139E4,1.2773E4,3.8345E4,1.2794E4,2.5595E4,1.275E4,1.276E4,1.2835E4],"tree_param":{"num_deleted":"0","num_feature":"79","num_nodes":"11","size_leaf_vector":"1"}},{"base_weights":[-2.32758E-4,-3.5561547E-2,4.449595E-3,-5.0969094E-2,1.2817684E-3,-4.9507514E-2,-2.7673289E-3,-2.4377678E-3,-2.550055E-3],"categories":[],"categories_nodes":[],"categories_segments":[],"categories_sizes":[],"default_left":[0,0,0,0,0,0,0,0,0],"id":18,"left_children":[1,3,-1,5,-1,7,-1,-1,-1],"loss_changes":[2.8293198E2,6.062754E1,0E0,3.2589722E-1,0E0,4.0779114E-2,0E0,0E0,0E0],"parents":[2147483647,0,0,1,1,3,3,5,5],"right_children":[2,4,-1,6,-1,8,-1,-1,-1],"split_conditions":[1E0,1E0,4.449595E-3,1E0,1.2817684E-3,1E0,-2.7673289E-3,-2.4377678E-3,-2.550055E-3],"split_indices":[55,77,0,75,0,74,0,0,0],"split_type":[0,0,0,0,0,0,0,0,0],"sum_hessian":[8.9755E4,6.4297E4,2.5458E4,5.1365E4,1.2932E4,3.8517E4,1.2848E4,2.5639E4,1.2878E4],"tree_param":{"num_deleted":"0","num_feature":"79","num_nodes":"9","size_leaf_vector":"1"}},{"base_weights":[-7.6760705E-5,-3.3916887E-2,4.226608E-3,-2.9164169E-2,-2.6431952E-3,-2.2801176E-2,-2.4109508E-3,-1.1002956E-2,-2.3207625E-3,1.2163261E-3,-2.3149194E-3],"categories":[],"categories_nodes":[],"categories_segments":[],"categories_sizes":[],"default_left":[0,0,0,0,0,0,0,0,0,0,0],"id":19,"left_children":[1,3,-1,5,-1,7,-1,9,-1,-1,-1],"loss_changes":[2.560883E2,5.7516556E0,0E0,6.1920166E0,0E0,1.0668352E1,0E0,3.1844976E1,0E0,0E0,0E0],"parents":[2147483647,0,0,1,1,3,3,5,5,7,7],"right_children":[2,4,-1,6,-1,8,-1,10,-1,-1,-1],"split_conditions":[1E0,1E0,4.226608E-3,1E0,-2.6431952E-3,1E0,-2.4109508E-3,1E0,-2.3207625E-3,1.2163261E-3,-2.3149194E-3],"split_indices":[55,75,0,74,0,57,0,76,0,0,0],"split_type":[0,0,0,0,0,0,0,0,0,0,0],"sum_hessian":[8.944E4,6.3888E4,2.5552E4,5.1078E4,1.281E4,3.8293E4,1.2785E4,2.5536E4,1.2757E4,1.2762E4,1.2774E4],"tree_param":{"num_deleted":"0","num_feature":"79","num_nodes":"11","size_leaf_vector":"1"}},{"base_weights":[9.068357E-5,-3.1794343E-2,4.0078447E-3,-4.5965146E-2,1.233213E-3,-4.461166E-2,-2.501497E-3,-4.3928705E-2,-2.2985397E-3,-2.180788E-3,-2.2119414E-3],"categories":[],"categories_nodes":[],"categories_segments":[],"categories_sizes":[],"default_left":[0,0,0,0,0,0,0,0,0,0,0],"id":20,"left_children":[1,3,-1,5,-1,7,-1,9,-1,-1,-1],"loss_changes":[2.2871295E2,5.126361E1,0E0,2.7954865E-1,0E0,3.366089E-2,0E0,5.531311E-4,0E0,0E0,0E0],"parents":[2147483647,0,0,1,1,3,3,5,5,7,7],"right_children":[2,4,-1,6,-1,8,-1,10,-1,-1,-1],"split_conditions":[1E0,1E0,4.0078447E-3,1E0,1.233213E-3,1E0,-2.501497E-3,1E0,-2.2985397E-3,-2.180788E-3,-2.2119414E-3],"split_indices":[55,77,0,75,0,74,0,57,0,0,0],"split_type":[0,0,0,0,0,0,0,0,0,0,0],"sum_hessian":[8.9587E4,6.4072E4,2.5515E4,5.1217E4,1.2855E4,3.8432E4,1.2785E4,2.5601E4,1.2831E4,1.2813E4,1.2788E4],"tree_param":{"num_deleted":"0","num_feature":"79","num_nodes":"11","size_leaf_vector":"1"}},{"base_weights":[-5.9296985E-5,-3.0539434E-2,3.8126446E-3,-2.6206285E-2,-2.3891095E-3,-2.029379E-2,-2.1926053E-3,-9.384603E-3,-2.1027639E-3,1.1430796E-3,-2.0794875E-3],"categories":[],"categories_nodes":[],"categories_segments":[],"categories_sizes":[],"default_left":[0,0,0,0,0,0,0,0,0,0,0],"id":21,"left_children":[1,3,-1,5,-1,7,-1,9,-1,-1,-1],"loss_changes":[2.087753E2,4.7909203E0,0E0,5.347107E0,0E0,9.115057E0,0E0,2.6562498E1,0E0,0E0,0E0],"parents":[2147483647,0,0,1,1,3,3,5,5,7,7],"right_children":[2,4,-1,6,-1,8,-1,10,-1,-1,-1],"split_conditions":[1E0,1E0,3.8126446E-3,1E0,-2.3891095E-3,1E0,-2.1926053E-3,1E0,-2.1027639E-3,1.1430796E-3,-2.0794875E-3],"split_indices":[55,75,0,74,0,57,0,76,0,0,0],"split_type":[0,0,0,0,0,0,0,0,0,0,0],"sum_hessian":[8.9755E4,6.4138E4,2.5617E4,5.1259E4,1.2879E4,3.8396E4,1.2863E4,2.5576E4,1.282E4,1.278E4,1.2796E4],"tree_param":{"num_deleted":"0","num_feature":"79","num_nodes":"11","size_leaf_vector":"1"}},{"base_weights":[1.2457253E-4,-2.8751886E-2,3.625795E-3,-4.1378945E-2,1.0750606E-3,-4.0230766E-2,-2.2416196E-3,-3.9671365E-2,-2.0666805E-3,-1.9635928E-3,-2.0033463E-3],"categories":[],"categories_nodes":[],"categories_segments":[],"categories_sizes":[],"default_left":[0,0,0,0,0,0,0,0,0,0,0],"id":22,"left_children":[1,3,-1,5,-1,7,-1,9,-1,-1,-1],"loss_changes":[1.8717278E2,4.0616455E1,0E0,2.0102692E-1,0E0,2.2052765E-2,0E0,2.456665E-3,0E0,0E0,0E0],"parents":[2147483647,0,0,1,1,3,3,5,5,7,7],"right_children":[2,4,-1,6,-1,8,-1,10,-1,-1,-1],"split_conditions":[1E0,1E0,3.625795E-3,1E0,1.0750606E-3,1E0,-2.2416196E-3,1E0,-2.0666805E-3,-1.9635928E-3,-2.0033463E-3],"split_indices":[55,77,0,75,0,74,0,57,0,0,0],"split_type":[0,0,0,0,0,0,0,0,0,0,0],"sum_hessian":[8.9537E4,6.4006E4,2.5531E4,5.1153E4,1.2853E4,3.8399E4,1.2754E4,2.5501E4,1.2898E4,1.2737E4,1.2764E4],"tree_param":{"num_deleted":"0","num_feature":"79","num_nodes":"11","size_leaf_vector":"1"}},{"base_weights":[-8.486487E-5,-2.75014E-2,3.4382844E-3,-3.9352406E-2,1.0021385E-3,-3.8277503E-2,-2.1293825E-3,-1.8843388E-3,-1.9731887E-3],"categories":[],"categories_nodes":[],"categories_segments":[],"categories_sizes":[],"default_left":[0,0,0,0,0,0,0,0,0],"id":23,"left_children":[1,3,-1,5,-1,7,-1,-1,-1],"loss_changes":[1.692537E2,3.613346E1,0E0,1.7688751E-1,0E0,2.552414E-2,0E0,0E0,0E0],"parents":[2147483647,0,0,1,1,3,3,5,5],"right_children":[2,4,-1,6,-1,8,-1,-1,-1],"split_conditions":[1E0,1E0,3.4382844E-3,1E0,1.0021385E-3,1E0,-2.1293825E-3,-1.8843388E-3,-1.9731887E-3],"split_indices":[55,77,0,75,0,74,0,0,0],"split_type":[0,0,0,0,0,0,0,0,0],"sum_hessian":[8.9662E4,6.4127E4,2.5535E4,5.1332E4,1.2795E4,3.854E4,1.2792E4,2.575E4,1.279E4],"tree_param":{"num_deleted":"0","num_feature":"79","num_nodes":"9","size_leaf_vector":"1"}},{"base_weights":[1.2093634E-4,-2.5964059E-2,3.2845791E-3,-3.739059E-2,9.960913E-4,-3.617729E-2,-2.0514547E-3,-1.7801576E-3,-1.866122E-3],"categories":[],"categories_nodes":[],"categories_segments":[],"categories_sizes":[],"default_left":[0,0,0,0,0,0,0,0,0],"id":24,"left_children":[1,3,-1,5,-1,7,-1,-1,-1],"loss_changes":[1.5341522E2,3.3645092E1,0E0,2.2531128E-1,0E0,2.4009705E-2,0E0,0E0,0E0],"parents":[2147483647,0,0,1,1,3,3,5,5],"right_children":[2,4,-1,6,-1,8,-1,-1,-1],"split_conditions":[1E0,1E0,3.2845791E-3,1E0,9.960913E-4,1E0,-2.0514547E-3,-1.7801576E-3,-1.866122E-3],"split_indices":[55,77,0,75,0,74,0,0,0],"split_type":[0,0,0,0,0,0,0,0,0],"sum_hessian":[8.9693E4,6.4167E4,2.5526E4,5.1374E4,1.2793E4,3.8535E4,1.2839E4,2.5688E4,1.2847E4],"tree_param":{"num_deleted":"0","num_feature":"79","num_nodes":"9","size_leaf_vector":"1"}},{"base_weights":[-5.1649742E-5,-2.4749631E-2,3.102344E-3,-3.5651345E-2,9.454648E-4,-3.458578E-2,-1.9408296E-3,-1.7036025E-3,-1.7803618E-3],"categories":[],"categories_nodes":[],"categories_segments":[],"categories_sizes":[],"default_left":[0,0,0,0,0,0,0,0,0],"id":25,"left_children":[1,3,-1,5,-1,7,-1,-1,-1],"loss_changes":[1.3761044E2,3.0553787E1,0E0,1.7190552E-1,0E0,1.8959045E-2,0E0,0E0,0E0],"parents":[2147483647,0,0,1,1,3,3,5,5],"right_children":[2,4,-1,6,-1,8,-1,-1,-1],"split_conditions":[1E0,1E0,3.102344E-3,1E0,9.454648E-4,1E0,-1.9408296E-3,-1.7036025E-3,-1.7803618E-3],"split_indices":[55,77,0,75,0,74,0,0,0],"split_type":[0,0,0,0,0,0,0,0,0],"sum_hessian":[8.9722E4,6.4192E4,2.553E4,5.1366E4,1.2826E4,3.8438E4,1.2928E4,2.5598E4,1.284E4],"tree_param":{"num_deleted":"0","num_feature":"79","num_nodes":"9","size_leaf_vector":"1"}},{"base_weights":[5.012092E-5,-2.3515895E-2,2.951047E-3,-3.3835605E-2,8.920361E-4,-3.2866403E-2,-1.8373731E-3,-1.6172726E-3,-1.6952545E-3],"categories":[],"categories_nodes":[],"categories_segments":[],"categories_sizes":[],"default_left":[0,0,0,0,0,0,0,0,0],"id":26,"left_children":[1,3,-1,5,-1,7,-1,-1,-1],"loss_changes":[1.2441215E2,2.729926E1,0E0,1.4325714E-1,0E0,1.9691467E-2,0E0,0E0,0E0],"parents":[2147483647,0,0,1,1,3,3,5,5],"right_children":[2,4,-1,6,-1,8,-1,-1,-1],"split_conditions":[1E0,1E0,2.951047E-3,1E0,8.920361E-4,1E0,-1.8373731E-3,-1.6172726E-3,-1.6952545E-3],"split_indices":[55,77,0,75,0,74,0,0,0],"split_type":[0,0,0,0,0,0,0,0,0],"sum_hessian":[8.9522E4,6.3962E4,2.556E4,5.1189E4,1.2773E4,3.8415E4,1.2774E4,2.5605E4,1.281E4],"tree_param":{"num_deleted":"0","num_feature":"79","num_nodes":"9","size_leaf_vector":"1"}},{"base_weights":[-1.9964893E-4,2.6919387E-2,-2.0560225E-2,2.7964886E-3,-1.548397E-3,-3.253782E-2,7.6153E-4,-3.134868E-2,-1.7458316E-3,-1.5988912E-3,-1.5358297E-3],"categories":[],"categories_nodes":[],"categories_segments":[],"categories_sizes":[],"default_left":[0,0,0,0,0,0,0,0,0,0,0],"id":27,"left_children":[1,3,5,-1,-1,7,-1,9,-1,-1,-1],"loss_changes":[4.9531445E1,6.4602325E1,2.1965189E1,0E0,0E0,1.0749817E-1,0E0,9.20105E-3,0E0,0E0,0E0],"parents":[2147483647,0,0,1,1,2,2,5,5,7,7],"right_children":[2,4,6,-1,-1,8,-1,10,-1,-1,-1],"split_conditions":[1E0,1E0,1E0,2.7964886E-3,-1.548397E-3,1E0,7.6153E-4,1E0,-1.7458316E-3,-1.5988912E-3,-1.5358297E-3],"split_indices":[72,57,77,0,0,75,0,76,0,0,0],"split_type":[0,0,0,0,0,0,0,0,0,0,0],"sum_hessian":[8.9703E4,3.8467E4,5.1236E4,2.5625E4,1.2842E4,3.8389E4,1.2847E4,2.5604E4,1.2785E4,1.2807E4,1.2797E4],"tree_param":{"num_deleted":"0","num_feature":"79","num_nodes":"11","size_leaf_vector":"1"}},{"base_weights":[1.7231096E-4,-2.130012E-2,2.6797273E-3,-1.834769E-2,-1.6584715E-3,-1.431348E-2,-1.5220818E-3,-6.709431E-3,-1.4678467E-3,8.013621E-4,-1.4614462E-3],"categories":[],"categories_nodes":[],"categories_segments":[],"categories_sizes":[],"default_left":[0,0,0,0,0,0,0,0,0,0,0],"id":28,"left_children":[1,3,-1,5,-1,7,-1,9,-1,-1,-1],"loss_changes":[1.0272671E2,2.2378864E0,0E0,2.4954414E0,0E0,4.388076E0,0E0,1.304823E1,0E0,0E0,0E0],"parents":[2147483647,0,0,1,1,3,3,5,5,7,7],"right_children":[2,4,-1,6,-1,8,-1,10,-1,-1,-1],"split_conditions":[1E0,1E0,2.6797273E-3,1E0,-1.6584715E-3,1E0,-1.5220818E-3,1E0,-1.4678467E-3,8.013621E-4,-1.4614462E-3],"split_indices":[55,75,0,74,0,57,0,76,0,0,0],"split_type":[0,0,0,0,0,0,0,0,0,0,0],"sum_hessian":[8.9551E4,6.3877E4,2.5674E4,5.1155E4,1.2722E4,3.8361E4,1.2794E4,2.5482E4,1.2879E4,1.268E4,1.2802E4],"tree_param":{"num_deleted":"0","num_feature":"79","num_nodes":"11","size_leaf_vector":"1"}},{"base_weights":[2.312551E-5,-2.0313505E-2,2.538179E-3,-2.899709E-2,7.4586645E-4,-2.8138846E-2,-1.5788063E-3,-1.3801927E-3,-2.8404592E-2,-1.4439673E-3,-1.3961768E-3],"categories":[],"categories_nodes":[],"categories_segments":[],"categories_sizes":[],"default_left":[0,0,0,0,0,0,0,0,0,0,0],"id":29,"left_children":[1,3,-1,5,-1,7,-1,-1,9,-1,-1],"loss_changes":[9.247385E1,1.9572302E1,0E0,1.1271286E-1,0E0,4.6958923E-3,0E0,0E0,5.0621033E-3,0E0,0E0],"parents":[2147483647,0,0,1,1,3,3,5,5,8,8],"right_children":[2,4,-1,6,-1,8,-1,-1,10,-1,-1],"split_conditions":[1E0,1E0,2.538179E-3,1E0,7.4586645E-4,1E0,-1.5788063E-3,-1.3801927E-3,1E0,-1.4439673E-3,-1.3961768E-3],"split_indices":[55,77,0,75,0,72,0,0,76,0,0],"split_type":[0,0,0,0,0,0,0,0,0,0,0],"sum_hessian":[8.9614E4,6.3974E4,2.564E4,5.1324E4,1.265E4,3.8518E4,1.2806E4,1.2818E4,2.57E4,1.2905E4,1.2795E4],"tree_param":{"num_deleted":"0","num_feature":"79","num_nodes":"11","size_leaf_vector":"1"}},{"base_weights":[5.117144E-5,-1.9282848E-2,2.410566E-3,-2.7525306E-2,6.8165443E-4,-2.6609201E-2,-1.5140299E-3,-1.31258E-3,-1.366186E-3],"categories":[],"categories_nodes":[],"categories_segments":[],"categories_sizes":[],"default_left":[0,0,0,0,0,0,0,0,0],"id":30,"left_children":[1,3,-1,5,-1,7,-1,-1,-1],"loss_changes":[8.336306E1,1.7332363E1,0E0,1.2815094E-1,0E0,9.080887E-3,0E0,0E0,0E0],"parents":[2147483647,0,0,1,1,3,3,5,5],"right_children":[2,4,-1,6,-1,8,-1,-1,-1],"split_conditions":[1E0,1E0,2.410566E-3,1E0,6.8165443E-4,1E0,-1.5140299E-3,-1.31258E-3,-1.366186E-3],"split_indices":[55,77,0,75,0,74,0,0,0],"split_type":[0,0,0,0,0,0,0,0,0],"sum_hessian":[8.9527E4,6.3882E4,2.5645E4,5.1089E4,1.2793E4,3.8349E4,1.274E4,2.5583E4,1.2766E4],"tree_param":{"num_deleted":"0","num_feature":"79","num_nodes":"9","size_leaf_vector":"1"}},{"base_weights":[-1.6733354E-4,2.2000713E-2,-1.676936E-2,2.2750134E-3,-1.2619845E-3,-2.6576841E-2,6.434555E-4,-2.54954E-2,-1.4366345E-3,-1.2405246E-3,-1.3084713E-3],"categories":[],"categories_nodes":[],"categories_segments":[],"categories_sizes":[],"default_left":[0,0,0,0,0,0,0,0,0,0,0],"id":31,"left_children":[1,3,5,-1,-1,7,-1,9,-1,-1,-1],"loss_changes":[3.2990242E1,4.2613434E1,1.4898788E1,0E0,0E0,8.905411E-2,0E0,1.1194229E-2,0E0,0E0,0E0],"parents":[2147483647,0,0,1,1,2,2,5,5,7,7],"right_children":[2,4,6,-1,-1,8,-1,10,-1,-1,-1],"split_conditions":[1E0,1E0,1E0,2.2750134E-3,-1.2619845E-3,1E0,6.434555E-4,1E0,-1.4366345E-3,-1.2405246E-3,-1.3084713E-3],"split_indices":[72,57,77,0,0,75,0,74,0,0,0],"split_type":[0,0,0,0,0,0,0,0,0,0,0],"sum_hessian":[8.9637E4,3.8384E4,5.1253E4,2.5633E4,1.2751E4,3.851E4,1.2743E4,2.5654E4,1.2856E4,1.2743E4,1.2911E4],"tree_param":{"num_deleted":"0","num_feature":"79","num_nodes":"11","size_leaf_vector":"1"}},{"base_weights":[-8.862256E-5,-1.733291E-2,2.1601948E-3,-1.481615E-2,-1.3671577E-3,-1.1479394E-2,-1.2410803E-3,-5.232462E-3,-1.2017582E-3,6.545409E-4,-1.1781248E-3],"categories":[],"categories_nodes":[],"categories_segments":[],"categories_sizes":[],"default_left":[0,0,0,0,0,0,0,0,0,0,0],"id":32,"left_children":[1,3,-1,5,-1,7,-1,9,-1,-1,-1],"loss_changes":[6.674892E1,1.6104832E0,0E0,1.7056274E0,0E0,3.0055041E0,0E0,8.595128E0,0E0,0E0,0E0],"parents":[2147483647,0,0,1,1,3,3,5,5,7,7],"right_children":[2,4,-1,6,-1,8,-1,10,-1,-1,-1],"split_conditions":[1E0,1E0,2.1601948E-3,1E0,-1.3671577E-3,1E0,-1.2410803E-3,1E0,-1.2017582E-3,6.545409E-4,-1.1781248E-3],"split_indices":[55,75,0,74,0,57,0,76,0,0,0],"split_type":[0,0,0,0,0,0,0,0,0,0,0],"sum_hessian":[8.9408E4,6.394E4,2.5468E4,5.1096E4,1.2844E4,3.8319E4,1.2777E4,2.5589E4,1.273E4,1.2797E4,1.2792E4],"tree_param":{"num_deleted":"0","num_feature":"79","num_nodes":"11","size_leaf_vector":"1"}},{"base_weights":[-1.3074695E-4,-1.6418664E-2,2.043248E-3,-2.364782E-2,6.0765265E-4,-2.3028882E-2,-1.2753938E-3,-1.157659E-3,-1.138812E-3],"categories":[],"categories_nodes":[],"categories_segments":[],"categories_sizes":[],"default_left":[0,0,0,0,0,0,0,0,0],"id":33,"left_children":[1,3,-1,5,-1,7,-1,-1,-1],"loss_changes":[5.9820343E1,1.3243E1,0E0,5.8321E-2,0E0,6.7710876E-4,0E0,0E0,0E0],"parents":[2147483647,0,0,1,1,3,3,5,5],"right_children":[2,4,-1,6,-1,8,-1,-1,-1],"split_conditions":[1E0,1E0,2.043248E-3,1E0,6.0765265E-4,1E0,-1.2753938E-3,-1.157659E-3,-1.138812E-3],"split_indices":[55,77,0,75,0,57,0,0,0],"split_type":[0,0,0,0,0,0,0,0,0],"sum_hessian":[8.9585E4,6.4113E4,2.5472E4,5.1167E4,1.2946E4,3.8402E4,1.2765E4,2.5678E4,1.2724E4],"tree_param":{"num_deleted":"0","num_feature":"79","num_nodes":"9","size_leaf_vector":"1"}},{"base_weights":[1.08736014E-4,-1.5615709E-2,1.972037E-3,-2.2487331E-2,5.9319753E-4,-2.178622E-2,-1.2296921E-3,-1.0773418E-3,-1.1129678E-3],"categories":[],"categories_nodes":[],"categories_segments":[],"categories_sizes":[],"default_left":[0,0,0,0,0,0,0,0,0],"id":34,"left_children":[1,3,-1,5,-1,7,-1,-1,-1],"loss_changes":[5.541897E1,1.208802E1,0E0,7.5092316E-2,0E0,3.8757324E-3,0E0,0E0,0E0],"parents":[2147483647,0,0,1,1,3,3,5,5],"right_children":[2,4,-1,6,-1,8,-1,-1,-1],"split_conditions":[1E0,1E0,1.972037E-3,1E0,5.9319753E-4,1E0,-1.2296921E-3,-1.0773418E-3,-1.1129678E-3],"split_indices":[55,77,0,75,0,74,0,0,0],"split_type":[0,0,0,0,0,0,0,0,0],"sum_hessian":[8.9604E4,6.4013E4,2.5591E4,5.1208E4,1.2805E4,3.8429E4,1.2779E4,2.5549E4,1.288E4],"tree_param":{"num_deleted":"0","num_feature":"79","num_nodes":"9","size_leaf_vector":"1"}},{"base_weights":[-4.5226516E-5,-1.4808859E-2,1.8567963E-3,-1.2719535E-2,-1.1594164E-3,-9.775863E-3,-1.0752402E-3,-4.352069E-3,-1.0238416E-3,5.820948E-4,-1.0093688E-3],"categories":[],"categories_nodes":[],"categories_segments":[],"categories_sizes":[],"default_left":[0,0,0,0,0,0,0,0,0,0,0],"id":35,"left_children":[1,3,-1,5,-1,7,-1,9,-1,-1,-1],"loss_changes":[4.9205433E1,1.1230154E0,0E0,1.3279829E0,0E0,2.2327619E0,0E0,6.466707E0,0E0,0E0,0E0],"parents":[2147483647,0,0,1,1,3,3,5,5,7,7],"right_children":[2,4,-1,6,-1,8,-1,10,-1,-1,-1],"split_conditions":[1E0,1E0,1.8567963E-3,1E0,-1.1594164E-3,1E0,-1.0752402E-3,1E0,-1.0238416E-3,5.820948E-4,-1.0093688E-3],"split_indices":[55,75,0,74,0,57,0,76,0,0,0],"split_type":[0,0,0,0,0,0,0,0,0,0,0],"sum_hessian":[8.9637E4,6.4161E4,2.5476E4,5.1358E4,1.2803E4,3.847E4,1.2888E4,2.5531E4,1.2939E4,1.2702E4,1.2829E4],"tree_param":{"num_deleted":"0","num_feature":"79","num_nodes":"11","size_leaf_vector":"1"}},{"base_weights":[8.600144E-5,-1.3973093E-2,1.7570499E-3,-2.0190785E-2,5.343122E-4,-1.9678002E-2,-1.0862815E-3,-1.932429E-2,-1.0192456E-3,-9.5877436E-4,-9.7362784E-4],"categories":[],"categories_nodes":[],"categories_segments":[],"categories_sizes":[],"default_left":[0,0,0,0,0,0,0,0,0,0,0],"id":36,"left_children":[1,3,-1,5,-1,7,-1,9,-1,-1,-1],"loss_changes":[4.424238E1,9.824152E0,0E0,3.984642E-2,0E0,9.20105E-3,0E0,1.9073486E-4,0E0,0E0,0E0],"parents":[2147483647,0,0,1,1,3,3,5,5,7,7],"right_children":[2,4,-1,6,-1,8,-1,10,-1,-1,-1],"split_conditions":[1E0,1E0,1.7570499E-3,1E0,5.343122E-4,1E0,-1.0862815E-3,1E0,-1.0192456E-3,-9.5877436E-4,-9.7362784E-4],"split_indices":[55,77,0,75,0,74,0,57,0,0,0],"split_type":[0,0,0,0,0,0,0,0,0,0,0],"sum_hessian":[8.9768E4,6.4072E4,2.5696E4,5.117E4,1.2902E4,3.8366E4,1.2804E4,2.559E4,1.2776E4,1.2837E4,1.2753E4],"tree_param":{"num_deleted":"0","num_feature":"79","num_nodes":"11","size_leaf_vector":"1"}},{"base_weights":[-1.1842433E-4,1.603712E-2,-1.2249657E-2,1.6639775E-3,-9.2083775E-4,-9.366065E-3,-1.0491213E-3,-2.4517206E-4,-9.166375E-4],"categories":[],"categories_nodes":[],"categories_segments":[],"categories_sizes":[],"default_left":[0,0,0,0,0,0,0,0,0],"id":37,"left_children":[1,3,5,-1,-1,7,-1,-1,-1],"loss_changes":[1.758902E1,2.2865711E1,1.2905436E0,0E0,0E0,1.5418859E0,0E0,0E0,0E0],"parents":[2147483647,0,0,1,1,2,2,5,5],"right_children":[2,4,6,-1,-1,8,-1,-1,-1],"split_conditions":[1E0,1E0,1E0,1.6639775E-3,-9.2083775E-4,1E0,-1.0491213E-3,-2.4517206E-4,-9.166375E-4],"split_indices":[72,57,75,0,0,76,0,0,0],"split_type":[0,0,0,0,0,0,0,0,0],"sum_hessian":[8.9744E4,3.8488E4,5.1256E4,2.5651E4,1.2837E4,3.8534E4,1.2722E4,2.573E4,1.2804E4],"tree_param":{"num_deleted":"0","num_feature":"79","num_nodes":"9","size_leaf_vector":"1"}},{"base_weights":[-3.8371494E-5,-1.2831186E-2,3.185314E-2,-1.8595602E-2,5.1141914E-4,1.6133207E-3,1.5716711E-3,-1.8128991E-2,-9.998799E-4,-8.8158355E-4,-9.560371E-4],"categories":[],"categories_nodes":[],"categories_segments":[],"categories_sizes":[],"default_left":[0,0,0,0,0,0,0,0,0,0,0],"id":38,"left_children":[1,3,5,7,-1,-1,-1,9,-1,-1,-1],"loss_changes":[3.655112E1,8.499546E0,3.435135E-3,3.310013E-2,0E0,0E0,0E0,1.8598557E-2,0E0,0E0,0E0],"parents":[2147483647,0,0,1,1,2,2,3,3,7,7],"right_children":[2,4,6,8,-1,-1,-1,10,-1,-1,-1],"split_conditions":[1E0,1E0,1E0,1E0,5.1141914E-4,1.6133207E-3,1.5716711E-3,1E0,-9.998799E-4,-8.8158355E-4,-9.560371E-4],"split_indices":[55,77,60,75,0,0,0,74,0,0,0],"split_type":[0,0,0,0,0,0,0,0,0,0,0],"sum_hessian":[8.9588E4,6.394E4,2.5648E4,5.1153E4,1.2787E4,1.2885E4,1.2763E4,3.839E4,1.2763E4,2.5581E4,1.2809E4],"tree_param":{"num_deleted":"0","num_feature":"79","num_nodes":"11","size_leaf_vector":"1"}},{"base_weights":[6.78054E-5,1.4656617E-2,-1.086946E-2,1.5145565E-3,-8.292122E-4,-1.7679503E-2,4.8309562E-4,-1.7124297E-2,-9.394008E-4,-8.160498E-4,-8.960105E-4],"categories":[],"categories_nodes":[],"categories_segments":[],"categories_sizes":[],"default_left":[0,0,0,0,0,0,0,0,0,0,0],"id":39,"left_children":[1,3,5,-1,-1,7,-1,9,-1,-1,-1],"loss_changes":[1.4294016E1,1.8748615E1,7.1587906E0,0E0,0E0,2.3340225E-2,0E0,1.6093254E-2,0E0,0E0,0E0],"parents":[2147483647,0,0,1,1,2,2,5,5,7,7],"right_children":[2,4,6,-1,-1,8,-1,10,-1,-1,-1],"split_conditions":[1E0,1E0,1E0,1.5145565E-3,-8.292122E-4,1E0,4.8309562E-4,1E0,-9.394008E-4,-8.160498E-4,-8.960105E-4],"split_indices":[72,63,77,0,0,75,0,74,0,0,0],"split_type":[0,0,0,0,0,0,0,0,0,0,0],"sum_hessian":[8.9581E4,3.8383E4,5.1198E4,2.5581E4,1.2802E4,3.8446E4,1.2752E4,2.5627E4,1.2819E4,1.2765E4,1.2862E4],"tree_param":{"num_deleted":"0","num_feature":"79","num_nodes":"11","size_leaf_vector":"1"}},{"base_weights":[4.378378E-5,1.3894162E-2,-1.030711E-2,2.878083E-2,-7.863571E-4,-4.3321215E-4,-7.6229655E-4,1.4209145E-3,1.4571166E-3],"categories":[],"categories_nodes":[],"categories_segments":[],"categories_sizes":[],"default_left":[0,0,0,0,0,0,0,0,0],"id":40,"left_children":[1,3,5,7,-1,-1,-1,-1,-1],"loss_changes":[1.2861166E1,1.691974E1,4.1644E-1,2.5196075E-3,0E0,0E0,0E0,0E0,0E0],"parents":[2147483647,0,0,1,1,2,2,3,3],"right_children":[2,4,6,8,-1,-1,-1,-1,-1],"split_conditions":[1E0,1E0,1E0,1E0,-7.863571E-4,-4.3321215E-4,-7.6229655E-4,1.4209145E-3,1.4571166E-3],"split_indices":[78,57,76,65,0,0,0,0,0],"split_type":[0,0,0,0,0,0,0,0,0],"sum_hessian":[8.9708E4,3.8368E4,5.134E4,2.5535E4,1.2833E4,3.8527E4,1.2813E4,1.2789E4,1.2746E4],"tree_param":{"num_deleted":"0","num_feature":"79","num_nodes":"9","size_leaf_vector":"1"}},{"base_weights":[-7.437282E-5,-1.0972174E-2,2.7250957E-2,-1.6015386E-2,4.581362E-4,1.3771793E-3,1.3477284E-3,-1.5399781E-2,-8.9200726E-4,-1.4939329E-2,-8.1562746E-4,-7.327566E-4,-7.611545E-4],"categories":[],"categories_nodes":[],"categories_segments":[],"categories_sizes":[],"default_left":[0,0,0,0,0,0,0,0,0,0,0,0,0],"id":41,"left_children":[1,3,5,7,-1,-1,-1,9,-1,11,-1,-1,-1],"loss_changes":[2.6756968E1,6.522862E0,1.4801025E-3,5.7430267E-2,0E0,0E0,0E0,1.590252E-2,0E0,1.8372536E-3,0E0,0E0,0E0],"parents":[2147483647,0,0,1,1,2,2,3,3,7,7,9,9],"right_children":[2,4,6,8,-1,-1,-1,10,-1,12,-1,-1,-1],"split_conditions":[1E0,1E0,1E0,1E0,4.581362E-4,1.3771793E-3,1.3477284E-3,1E0,-8.9200726E-4,1E0,-8.1562746E-4,-7.327566E-4,-7.611545E-4],"split_indices":[55,77,60,75,0,0,0,74,0,57,0,0,0],"split_type":[0,0,0,0,0,0,0,0,0,0,0,0,0],"sum_hessian":[8.9851E4,6.4234E4,2.5617E4,5.1368E4,1.2866E4,1.2844E4,1.2773E4,3.8417E4,1.2951E4,2.5547E4,1.287E4,1.279E4,1.2757E4],"tree_param":{"num_deleted":"0","num_feature":"79","num_nodes":"13","size_leaf_vector":"1"}},{"base_weights":[3.3264263E-5,-1.022392E-2,2.5748707E-2,-1.5179018E-2,4.7864902E-4,1.3006043E-3,1.274165E-3,-7.107E-4,-1.5502085E-2,-7.6153845E-4,-8.021976E-4],"categories":[],"categories_nodes":[],"categories_segments":[],"categories_sizes":[],"default_left":[0,0,0,0,0,0,0,0,0,0,0],"id":42,"left_children":[1,3,5,7,-1,-1,-1,-1,9,-1,-1],"loss_changes":[2.3694284E1,6.2994504E0,1.127243E-3,1.5791893E-2,0E0,0E0,0E0,0E0,5.411148E-3,0E0,0E0],"parents":[2147483647,0,0,1,1,2,2,3,3,8,8],"right_children":[2,4,6,8,-1,-1,-1,-1,10,-1,-1],"split_conditions":[1E0,1E0,1E0,1E0,4.7864902E-4,1.3006043E-3,1.274165E-3,-7.107E-4,1E0,-7.6153845E-4,-8.021976E-4],"split_indices":[55,77,60,72,0,0,0,0,74,0,0],"split_type":[0,0,0,0,0,0,0,0,0,0,0],"sum_hessian":[8.9828E4,6.4215E4,2.5613E4,5.136E4,1.2855E4,1.2807E4,1.2806E4,1.2893E4,3.8467E4,2.5652E4,1.2815E4],"tree_param":{"num_deleted":"0","num_feature":"79","num_nodes":"11","size_leaf_vector":"1"}},{"base_weights":[1.5277712E-5,-9.8937E-3,1.2395794E-3,-8.451951E-3,-7.841301E-4,-6.274541E-3,-7.503847E-4,-1.2488468E-4,-6.885191E-4],"categories":[],"categories_nodes":[],"categories_segments":[],"categories_sizes":[],"default_left":[0,0,0,0,0,0,0,0,0],"id":43,"left_children":[1,3,-1,5,-1,7,-1,-1,-1],"loss_changes":[2.2024021E1,5.34688E-1,0E0,7.322612E-1,0E0,1.0903502E0,0E0,0E0,0E0],"parents":[2147483647,0,0,1,1,3,3,5,5],"right_children":[2,4,-1,6,-1,8,-1,-1,-1],"split_conditions":[1E0,1E0,1.2395794E-3,1E0,-7.841301E-4,1E0,-7.503847E-4,-1.2488468E-4,-6.885191E-4],"split_indices":[55,75,0,74,0,57,0,0,0],"split_type":[0,0,0,0,0,0,0,0,0],"sum_hessian":[8.9706E4,6.4079E4,2.5627E4,5.1304E4,1.2775E4,3.8514E4,1.279E4,2.5611E4,1.2903E4],"tree_param":{"num_deleted":"0","num_feature":"79","num_nodes":"9","size_leaf_vector":"1"}},{"base_weights":[-1.09491266E-4,1.1298915E-2,-8.682633E-3,2.3434812E-2,-6.492565E-4,-1.4269485E-2,4.0548327E-4,1.1815885E-3,1.1616902E-3,-1.4763068E-2,-6.639732E-4,-7.562376E-4,-7.2013005E-4],"categories":[],"categories_nodes":[],"categories_segments":[],"categories_sizes":[],"default_left":[0,0,0,0,0,0,0,0,0,0,0,0,0],"id":44,"left_children":[1,3,5,7,-1,9,-1,-1,-1,11,-1,-1,-1],"loss_changes":[8.762234E0,1.1328316E1,4.7988086E0,4.6634674E-4,0E0,1.8558979E-2,0E0,0E0,0E0,3.1204224E-3,0E0,0E0,0E0],"parents":[2147483647,0,0,1,1,2,2,3,3,5,5,9,9],"right_children":[2,4,6,8,-1,10,-1,-1,-1,12,-1,-1,-1],"split_conditions":[1E0,1E0,1E0,1E0,-6.492565E-4,1E0,4.0548327E-4,1.1815885E-3,1.1616902E-3,1E0,-6.639732E-4,-7.562376E-4,-7.2013005E-4],"split_indices":[72,57,77,60,0,76,0,0,0,74,0,0,0],"split_type":[0,0,0,0,0,0,0,0,0,0,0,0,0],"sum_hessian":[8.9586E4,3.8437E4,5.1149E4,2.5629E4,1.2808E4,3.838E4,1.2769E4,1.2886E4,1.2743E4,2.5602E4,1.2778E4,1.2759E4,1.2843E4],"tree_param":{"num_deleted":"0","num_feature":"79","num_nodes":"13","size_leaf_vector":"1"}},{"base_weights":[-3.3531746E-6,-8.901269E-3,2.2176543E-2,-7.5174887E-3,-7.232742E-4,1.1220365E-3,1.0954473E-3,-5.449347E-3,-6.8444846E-4,-1.8728084E-3,-6.3019793E-4,4.2210773E-4,-6.0994644E-4],"categories":[],"categories_nodes":[],"categories_segments":[],"categories_sizes":[],"default_left":[0,0,0,0,0,0,0,0,0,0,0,0,0],"id":45,"left_children":[1,3,5,7,-1,-1,-1,9,-1,11,-1,-1,-1],"loss_changes":[1.767372E1,4.9199867E-1,1.3227463E-3,6.532376E-1,0E0,0E0,0E0,9.810487E-1,0E0,2.7229087E0,0E0,0E0,0E0],"parents":[2147483647,0,0,1,1,2,2,3,3,7,7,9,9],"right_children":[2,4,6,8,-1,-1,-1,10,-1,12,-1,-1,-1],"split_conditions":[1E0,1E0,1E0,1E0,-7.232742E-4,1.1220365E-3,1.0954473E-3,1E0,-6.8444846E-4,1E0,-6.3019793E-4,4.2210773E-4,-6.0994644E-4],"split_indices":[55,75,60,74,0,0,0,76,0,57,0,0,0],"split_type":[0,0,0,0,0,0,0,0,0,0,0,0,0],"sum_hessian":[8.9551E4,6.3912E4,2.5639E4,5.1185E4,1.2727E4,1.286E4,1.2779E4,3.8339E4,1.2846E4,2.5562E4,1.2777E4,1.2788E4,1.2774E4],"tree_param":{"num_deleted":"0","num_feature":"79","num_nodes":"13","size_leaf_vector":"1"}},{"base_weights":[3.6545418E-5,-8.342998E-3,2.1150334E-2,-1.2523166E-2,4.2262813E-4,1.0485583E-3,1.0664632E-3,-1.2903768E-2,-5.688528E-4,-1.3384689E-2,-5.965388E-4,-6.8283675E-4,-6.555696E-4],"categories":[],"categories_nodes":[],"categories_segments":[],"categories_sizes":[],"default_left":[0,0,0,0,0,0,0,0,0,0,0,0,0],"id":46,"left_children":[1,3,5,7,-1,-1,-1,9,-1,11,-1,-1,-1],"loss_changes":[1.5850614E1,4.5029826E0,3.6907196E-4,2.2255898E-2,0E0,0E0,0E0,1.7876625E-2,0E0,1.7385483E-3,0E0,0E0,0E0],"parents":[2147483647,0,0,1,1,2,2,3,3,7,7,9,9],"right_children":[2,4,6,8,-1,-1,-1,10,-1,12,-1,-1,-1],"split_conditions":[1E0,1E0,1E0,1E0,4.2262813E-4,1.0485583E-3,1.0664632E-3,1E0,-5.688528E-4,1E0,-5.965388E-4,-6.8283675E-4,-6.555696E-4],"split_indices":[55,77,60,57,0,0,0,76,0,74,0,0,0],"split_type":[0,0,0,0,0,0,0,0,0,0,0,0,0],"sum_hessian":[8.9588E4,6.4135E4,2.5453E4,5.1354E4,1.2781E4,1.2777E4,1.2676E4,3.8544E4,1.281E4,2.5786E4,1.2758E4,1.2898E4,1.2888E4],"tree_param":{"num_deleted":"0","num_feature":"79","num_nodes":"13","size_leaf_vector":"1"}},{"base_weights":[2.7878525E-5,-8.007237E-3,2.011645E-2,-1.1899173E-2,3.8541204E-4,1.0303832E-3,9.810372E-4,-1.1448933E-2,-6.6274725E-4,-1.1144043E-2,-6.0278474E-4,-5.713768E-4,-5.428943E-4],"categories":[],"categories_nodes":[],"categories_segments":[],"categories_sizes":[],"default_left":[0,0,0,0,0,0,0,0,0,0,0,0,0],"id":47,"left_children":[1,3,5,7,-1,-1,-1,9,-1,11,-1,-1,-1],"loss_changes":[1.448739E1,3.9212923E0,5.839348E-3,3.121519E-2,0E0,0E0,0E0,7.0033073E-3,0E0,1.9600391E-3,0E0,0E0,0E0],"parents":[2147483647,0,0,1,1,2,2,3,3,7,7,9,9],"right_children":[2,4,6,8,-1,-1,-1,10,-1,12,-1,-1,-1],"split_conditions":[1E0,1E0,1E0,1E0,3.8541204E-4,1.0303832E-3,9.810372E-4,1E0,-6.6274725E-4,1E0,-6.0278474E-4,-5.713768E-4,-5.428943E-4],"split_indices":[55,77,60,75,0,0,0,74,0,57,0,0,0],"split_type":[0,0,0,0,0,0,0,0,0,0,0,0,0],"sum_hessian":[8.9751E4,6.4109E4,2.5642E4,5.1384E4,1.2725E4,1.2859E4,1.2783E4,3.8581E4,1.2803E4,2.5691E4,1.289E4,1.2886E4,1.2805E4],"tree_param":{"num_deleted":"0","num_feature":"79","num_nodes":"13","size_leaf_vector":"1"}},{"base_weights":[-2.1493564E-4,-7.7496655E-3,1.8652583E-2,-1.1367664E-2,3.3806014E-4,9.486219E-4,9.163904E-4,-1.10226115E-2,-6.1998353E-4,-1.1323217E-2,-5.211033E-4,-5.819275E-4,-5.503005E-4],"categories":[],"categories_nodes":[],"categories_segments":[],"categories_sizes":[],"default_left":[0,0,0,0,0,0,0,0,0,0,0,0,0],"id":48,"left_children":[1,3,5,7,-1,-1,-1,9,-1,11,-1,-1,-1],"loss_changes":[1.2721622E1,3.3574178E0,2.3040771E-3,1.8091202E-2,0E0,0E0,0E0,6.8092346E-3,0E0,2.4282932E-3,0E0,0E0,0E0],"parents":[2147483647,0,0,1,1,2,2,3,3,7,7,9,9],"right_children":[2,4,6,8,-1,-1,-1,10,-1,12,-1,-1,-1],"split_conditions":[1E0,1E0,1E0,1E0,3.3806014E-4,9.486219E-4,9.163904E-4,1E0,-6.1998353E-4,1E0,-5.211033E-4,-5.819275E-4,-5.503005E-4],"split_indices":[55,77,60,75,0,0,0,57,0,76,0,0,0],"split_type":[0,0,0,0,0,0,0,0,0,0,0,0,0],"sum_hessian":[8.9485E4,6.3948E4,2.5537E4,5.1186E4,1.2762E4,1.2837E4,1.27E4,3.8369E4,1.2817E4,2.5558E4,1.2811E4,1.2799E4,1.2759E4],"tree_param":{"num_deleted":"0","num_feature":"79","num_nodes":"13","size_leaf_vector":"1"}},{"base_weights":[2.1324422E-6,-7.21797E-3,9.059689E-4,-1.0724281E-2,3.409803E-4,-1.0533883E-2,-5.647884E-4,-1.0335741E-2,-5.465013E-4,-5.0613424E-4,-5.274336E-4],"categories":[],"categories_nodes":[],"categories_segments":[],"categories_sizes":[],"default_left":[0,0,0,0,0,0,0,0,0,0,0],"id":49,"left_children":[1,3,-1,5,-1,7,-1,9,-1,-1,-1],"loss_changes":[1.1725793E1,3.154934E0,0E0,5.461693E-3,0E0,2.907753E-3,0E0,1.0581017E-3,0E0,0E0,0E0],"parents":[2147483647,0,0,1,1,3,3,5,5,7,7],"right_children":[2,4,-1,6,-1,8,-1,10,-1,-1,-1],"split_conditions":[1E0,1E0,9.059689E-4,1E0,3.409803E-4,1E0,-5.647884E-4,1E0,-5.465013E-4,-5.0613424E-4,-5.274336E-4],"split_indices":[55,77,0,75,0,74,0,76,0,0,0],"split_type":[0,0,0,0,0,0,0,0,0,0,0],"sum_hessian":[8.9639E4,6.4096E4,2.5543E4,5.1286E4,1.281E4,3.8484E4,1.2802E4,2.5671E4,1.2813E4,1.2856E4,1.2815E4],"tree_param":{"num_deleted":"0","num_feature":"79","num_nodes":"11","size_leaf_vector":"1"}},{"base_weights":[1.02507525E-4,-6.6718627E-3,1.6963905E-2,-1.0016523E-2,3.4195647E-4,8.699167E-4,8.2634465E-4,-9.641705E-3,-5.569395E-4,-9.342642E-3,-5.1192706E-4,-4.7288206E-4,-4.614066E-4],"categories":[],"categories_nodes":[],"categories_segments":[],"categories_sizes":[],"default_left":[0,0,0,0,0,0,0,0,0,0,0,0,0],"id":50,"left_children":[1,3,5,7,-1,-1,-1,9,-1,11,-1,-1,-1],"loss_changes":[1.0215971E1,2.8833065E0,4.579544E-3,2.140522E-2,0E0,0E0,0E0,6.7489147E-3,0E0,2.4914742E-4,0E0,0E0,0E0],"parents":[2147483647,0,0,1,1,2,2,3,3,7,7,9,9],"right_children":[2,4,6,8,-1,-1,-1,10,-1,12,-1,-1,-1],"split_conditions":[1E0,1E0,1E0,1E0,3.4195647E-4,8.699167E-4,8.2634465E-4,1E0,-5.569395E-4,1E0,-5.1192706E-4,-4.7288206E-4,-4.614066E-4],"split_indices":[55,77,60,75,0,0,0,74,0,57,0,0,0],"split_type":[0,0,0,0,0,0,0,0,0,0,0,0,0],"sum_hessian":[8.9435E4,6.3802E4,2.5633E4,5.1142E4,1.266E4,1.2835E4,1.2798E4,3.8345E4,1.2797E4,2.5556E4,1.2789E4,1.271E4,1.2846E4],"tree_param":{"num_deleted":"0","num_feature":"79","num_nodes":"13","size_leaf_vector":"1"}},{"base_weights":[1.20032266E-4,8.0760075E-3,-5.8274176E-3,1.6580347E-2,-4.4953707E-4,-9.956995E-3,3.298662E-4,8.18499E-4,8.395145E-4,-1.0221467E-2,-4.7122684E-4,-5.326772E-4,-4.897059E-4],"categories":[],"categories_nodes":[],"categories_segments":[],"categories_sizes":[],"default_left":[0,0,0,0,0,0,0,0,0,0,0,0,0],"id":51,"left_children":[1,3,5,7,-1,9,-1,-1,-1,11,-1,-1,-1],"loss_changes":[4.235129E0,5.5571795E0,2.6279554E0,8.535385E-4,0E0,5.3169727E-3,0E0,0E0,0E0,4.6360493E-3,0E0,0E0,0E0],"parents":[2147483647,0,0,1,1,2,2,3,3,5,5,9,9],"right_children":[2,4,6,8,-1,10,-1,-1,-1,12,-1,-1,-1],"split_conditions":[1E0,1E0,1E0,1E0,-4.4953707E-4,1E0,3.298662E-4,8.18499E-4,8.395145E-4,1E0,-4.7122684E-4,-5.326772E-4,-4.897059E-4],"split_indices":[78,57,77,60,0,76,0,0,0,74,0,0,0],"split_type":[0,0,0,0,0,0,0,0,0,0,0,0,0],"sum_hessian":[8.9502E4,3.8286E4,5.1216E4,2.5553E4,1.2733E4,3.844E4,1.2776E4,1.2803E4,1.275E4,2.5671E4,1.2769E4,1.2753E4,1.2918E4],"tree_param":{"num_deleted":"0","num_feature":"79","num_nodes":"13","size_leaf_vector":"1"}},{"base_weights":[-4.18342E-5,-6.1976733E-3,7.6637E-4,-9.064421E-3,2.6754636E-4,-8.820596E-3,-4.898641E-4,-8.505992E-3,-4.7241198E-4,-4.2203814E-4,-4.28499E-4],"categories":[],"categories_nodes":[],"categories_segments":[],"categories_sizes":[],"default_left":[0,0,0,0,0,0,0,0,0,0,0],"id":52,"left_children":[1,3,-1,5,-1,7,-1,9,-1,-1,-1],"loss_changes":[8.499527E0,2.1236923E0,0E0,9.096146E-3,0E0,7.535696E-3,0E0,3.4928322E-5,0E0,0E0,0E0],"parents":[2147483647,0,0,1,1,3,3,5,5,7,7],"right_children":[2,4,-1,6,-1,8,-1,10,-1,-1,-1],"split_conditions":[1E0,1E0,7.6637E-4,1E0,2.6754636E-4,1E0,-4.898641E-4,1E0,-4.7241198E-4,-4.2203814E-4,-4.28499E-4],"split_indices":[55,77,0,75,0,74,0,57,0,0,0],"split_type":[0,0,0,0,0,0,0,0,0,0,0],"sum_hessian":[8.9835E4,6.4144E4,2.5691E4,5.1388E4,1.2756E4,3.8569E4,1.2819E4,2.5701E4,1.2868E4,1.2793E4,1.2908E4],"tree_param":{"num_deleted":"0","num_feature":"79","num_nodes":"11","size_leaf_vector":"1"}},{"base_weights":[1.09464876E-4,-5.750737E-3,1.4828545E-2,-8.591958E-3,2.8484888E-4,7.518531E-4,7.3084555E-4,-8.216085E-3,-4.8573996E-4,-7.951398E-3,-4.372173E-4,-3.9344188E-4,-4.0167593E-4],"categories":[],"categories_nodes":[],"categories_segments":[],"categories_sizes":[],"default_left":[0,0,0,0,0,0,0,0,0,0,0,0,0],"id":53,"left_children":[1,3,5,7,-1,-1,-1,9,-1,11,-1,-1,-1],"loss_changes":[7.739303E0,2.0873396E0,9.0789795E-4,2.161932E-2,0E0,0E0,0E0,5.3174496E-3,0E0,1.1074543E-4,0E0,0E0,0E0],"parents":[2147483647,0,0,1,1,2,2,3,3,7,7,9,9],"right_children":[2,4,6,8,-1,-1,-1,10,-1,12,-1,-1,-1],"split_conditions":[1E0,1E0,1E0,1E0,2.8484888E-4,7.518531E-4,7.3084555E-4,1E0,-4.8573996E-4,1E0,-4.372173E-4,-3.9344188E-4,-4.0167593E-4],"split_indices":[55,77,60,75,0,0,0,74,0,63,0,0,0],"split_type":[0,0,0,0,0,0,0,0,0,0,0,0,0],"sum_hessian":[8.9722E4,6.4173E4,2.5549E4,5.1413E4,1.276E4,1.2834E4,1.2715E4,3.8525E4,1.2888E4,2.5676E4,1.2849E4,1.2852E4,1.2824E4],"tree_param":{"num_deleted":"0","num_feature":"79","num_nodes":"13","size_leaf_vector":"1"}},{"base_weights":[3.534335E-5,-5.456454E-3,6.9432904E-4,-4.6720654E-3,-4.301759E-4,-3.5160973E-3,-4.0656218E-4,-7.339549E-5,-3.8028284E-4],"categories":[],"categories_nodes":[],"categories_segments":[],"categories_sizes":[],"default_left":[0,0,0,0,0,0,0,0,0],"id":54,"left_children":[1,3,-1,5,-1,7,-1,-1,-1],"loss_changes":[6.8103848E0,1.5821898E-1,0E0,2.0519269E-1,0E0,3.2221237E-1,0E0,0E0,0E0],"parents":[2147483647,0,0,1,1,3,3,5,5],"right_children":[2,4,-1,6,-1,8,-1,-1,-1],"split_conditions":[1E0,1E0,6.9432904E-4,1E0,-4.301759E-4,1E0,-4.0656218E-4,-7.339549E-5,-3.8028284E-4],"split_indices":[55,74,0,76,0,57,0,0,0],"split_type":[0,0,0,0,0,0,0,0,0],"sum_hessian":[8.9528E4,6.411E4,2.5418E4,5.1321E4,1.2789E4,3.8468E4,1.2853E4,2.5632E4,1.2836E4],"tree_param":{"num_deleted":"0","num_feature":"79","num_nodes":"9","size_leaf_vector":"1"}},{"base_weights":[8.902664E-5,-5.3431517E-3,1.3670318E-2,-8.1208525E-3,2.9145466E-4,7.0475886E-4,6.6198065E-4,-7.855694E-3,-4.4536308E-4,-7.5943484E-3,-4.1890796E-4,-3.8321837E-4,-3.7619943E-4],"categories":[],"categories_nodes":[],"categories_segments":[],"categories_sizes":[],"default_left":[0,0,0,0,0,0,0,0,0,0,0,0,0],"id":55,"left_children":[1,3,5,7,-1,-1,-1,9,-1,11,-1,-1,-1],"loss_changes":[6.6106243E0,1.9862928E0,4.498005E-3,1.0618925E-2,0E0,0E0,0E0,5.171776E-3,0E0,6.830692E-5,0E0,0E0,0E0],"parents":[2147483647,0,0,1,1,2,2,3,3,7,7,9,9],"right_children":[2,4,6,8,-1,-1,-1,10,-1,12,-1,-1,-1],"split_conditions":[1E0,1E0,1E0,1E0,2.9145466E-4,7.0475886E-4,6.6198065E-4,1E0,-4.4536308E-4,1E0,-4.1890796E-4,-3.8321837E-4,-3.7619943E-4],"split_indices":[55,77,60,75,0,0,0,74,0,57,0,0,0],"split_type":[0,0,0,0,0,0,0,0,0,0,0,0,0],"sum_hessian":[8.9602E4,6.4003E4,2.5599E4,5.1259E4,1.2744E4,1.2871E4,1.2728E4,3.8342E4,1.2917E4,2.5568E4,1.2774E4,1.2761E4,1.2807E4],"tree_param":{"num_deleted":"0","num_feature":"79","num_nodes":"13","size_leaf_vector":"1"}},{"base_weights":[-1.0439671E-5,-5.0702575E-3,1.2557858E-2,-7.7471975E-3,2.8140296E-4,6.1182486E-4,6.4382376E-4,-7.4289674E-3,-4.3499694E-4,-7.222514E-3,-3.9200252E-4,-3.655146E-4,-3.5670094E-4],"categories":[],"categories_nodes":[],"categories_segments":[],"categories_sizes":[],"default_left":[0,0,0,0,0,0,0,0,0,0,0,0,0],"id":56,"left_children":[1,3,5,7,-1,-1,-1,9,-1,11,-1,-1,-1],"loss_changes":[5.698405E0,1.8296875E0,2.4757385E-3,1.5428543E-2,0E0,0E0,0E0,3.194809E-3,0E0,1.4615059E-4,0E0,0E0,0E0],"parents":[2147483647,0,0,1,1,2,2,3,3,7,7,9,9],"right_children":[2,4,6,8,-1,-1,-1,10,-1,12,-1,-1,-1],"split_conditions":[1E0,1E0,1E0,1E0,2.8140296E-4,6.1182486E-4,6.4382376E-4,1E0,-4.3499694E-4,1E0,-3.9200252E-4,-3.655146E-4,-3.5670094E-4],"split_indices":[55,77,60,75,0,0,0,74,0,57,0,0,0],"split_type":[0,0,0,0,0,0,0,0,0,0,0,0,0],"sum_hessian":[8.9605E4,6.3886E4,2.5719E4,5.11E4,1.2786E4,1.2824E4,1.2895E4,3.8312E4,1.2788E4,2.5516E4,1.2796E4,1.2769E4,1.2747E4],"tree_param":{"num_deleted":"0","num_feature":"79","num_nodes":"13","size_leaf_vector":"1"}},{"base_weights":[-8.431518E-5,-2.1397038E-3,6.126259E-4,-4.899551E-3,5.8543816E-4,-7.264867E-3,2.2546777E-4,-6.9898246E-3,-4.046545E-4,-6.855842E-3,-3.6282E-4,-3.4689196E-4,-3.386339E-4],"categories":[],"categories_nodes":[],"categories_segments":[],"categories_sizes":[],"default_left":[0,0,0,0,0,0,0,0,0,0,0,0,0],"id":57,"left_children":[1,3,-1,5,-1,7,-1,9,-1,11,-1,-1,-1],"loss_changes":[2.273052E0,2.9368553E0,0E0,1.4259573E0,0E0,1.1606932E-2,0E0,1.3233423E-3,0E0,1.2755394E-4,0E0,0E0,0E0],"parents":[2147483647,0,0,1,1,3,3,5,5,7,7,9,9],"right_children":[2,4,-1,6,-1,8,-1,10,-1,12,-1,-1,-1],"split_conditions":[1E0,1E0,6.126259E-4,1E0,5.8543816E-4,1E0,2.2546777E-4,1E0,-4.046545E-4,1E0,-3.6282E-4,-3.4689196E-4,-3.386339E-4],"split_indices":[65,60,0,77,0,75,0,74,0,63,0,0,0],"split_type":[0,0,0,0,0,0,0,0,0,0,0,0,0],"sum_hessian":[8.964E4,7.6839E4,1.2801E4,6.4071E4,1.2768E4,5.12E4,1.2871E4,3.8443E4,1.2757E4,2.5602E4,1.2841E4,1.285E4,1.2752E4],"tree_param":{"num_deleted":"0","num_feature":"79","num_nodes":"13","size_leaf_vector":"1"}},{"base_weights":[8.6296335E-5,5.646082E-3,-4.0703784E-3,1.1666688E-2,-3.1481474E-4,-3.512218E-4,2.3890402E-4,5.90493E-4,5.761722E-4],"categories":[],"categories_nodes":[],"categories_segments":[],"categories_sizes":[],"default_left":[0,0,0,0,0,0,0,0,0],"id":58,"left_children":[1,3,5,7,-1,-1,-1,-1,-1],"loss_changes":[2.0721545E0,2.758027E0,1.3411137E0,3.8671494E-4,0E0,0E0,0E0,0E0,0E0],"parents":[2147483647,0,0,1,1,2,2,3,3],"right_children":[2,4,6,8,-1,-1,-1,-1,-1],"split_conditions":[1E0,1E0,1E0,1E0,-3.1481474E-4,-3.512218E-4,2.3890402E-4,5.90493E-4,5.761722E-4],"split_indices":[72,57,77,65,0,0,0,0,0],"split_type":[0,0,0,0,0,0,0,0,0],"sum_hessian":[8.9662E4,3.8357E4,5.1305E4,2.5501E4,1.2856E4,3.8464E4,1.2841E4,1.2713E4,1.2788E4],"tree_param":{"num_deleted":"0","num_feature":"79","num_nodes":"9","size_leaf_vector":"1"}},{"base_weights":[-3.8203212E-5,5.3021912E-3,-4.024836E-3,1.0903579E-2,-2.9339024E-4,-2.9410378E-3,-3.6358542E-4,5.535757E-4,5.3675077E-4,-1.0697434E-3,-3.326426E-4,2.0911443E-4,-3.1567528E-4],"categories":[],"categories_nodes":[],"categories_segments":[],"categories_sizes":[],"default_left":[0,0,0,0,0,0,0,0,0,0,0,0,0],"id":59,"left_children":[1,3,5,7,-1,9,-1,-1,-1,11,-1,-1,-1],"loss_changes":[1.9126043E0,2.4025302E0,1.8098307E-1,6.0510635E-4,0E0,2.6786834E-1,0E0,0E0,0E0,7.0619E-1,0E0,0E0,0E0],"parents":[2147483647,0,0,1,1,2,2,3,3,5,5,9,9],"right_children":[2,4,6,8,-1,10,-1,-1,-1,12,-1,-1,-1],"split_conditions":[1E0,1E0,1E0,1E0,-2.9339024E-4,1E0,-3.6358542E-4,5.535757E-4,5.3675077E-4,1E0,-3.326426E-4,2.0911443E-4,-3.1567528E-4],"split_indices":[78,57,75,60,0,74,0,0,0,76,0,0,0],"split_type":[0,0,0,0,0,0,0,0,0,0,0,0,0],"sum_hessian":[8.9833E4,3.8397E4,5.1436E4,2.5573E4,1.2824E4,3.8565E4,1.2871E4,1.2778E4,1.2795E4,2.564E4,1.2925E4,1.281E4,1.283E4],"tree_param":{"num_deleted":"0","num_feature":"79","num_nodes":"13","size_leaf_vector":"1"}},{"base_weights":[-5.578007E-5,-4.1840803E-3,1.0271171E-2,-6.2097535E-3,1.9623914E-4,5.1700877E-4,5.100531E-4,-5.9423614E-3,-3.5072054E-4,-5.7209413E-3,-3.1922577E-4,-2.7594264E-4,-2.9610723E-4],"categories":[],"categories_nodes":[],"categories_segments":[],"categories_sizes":[],"default_left":[0,0,0,0,0,0,0,0,0,0,0,0,0],"id":60,"left_children":[1,3,5,7,-1,-1,-1,9,-1,11,-1,-1,-1],"loss_changes":[3.827953E0,1.0536804E0,1.835823E-5,1.1001468E-2,0E0,0E0,0E0,3.7355423E-3,0E0,1.01161E-3,0E0,0E0,0E0],"parents":[2147483647,0,0,1,1,2,2,3,3,7,7,9,9],"right_children":[2,4,6,8,-1,-1,-1,10,-1,12,-1,-1,-1],"split_conditions":[1E0,1E0,1E0,1E0,1.9623914E-4,5.1700877E-4,5.100531E-4,1E0,-3.5072054E-4,1E0,-3.1922577E-4,-2.7594264E-4,-2.9610723E-4],"split_indices":[55,77,60,75,0,0,0,74,0,72,0,0,0],"split_type":[0,0,0,0,0,0,0,0,0,0,0,0,0],"sum_hessian":[8.9787E4,6.4145E4,2.5642E4,5.1324E4,1.2821E4,1.2849E4,1.2793E4,3.8529E4,1.2795E4,2.5682E4,1.2847E4,1.2827E4,1.2855E4],"tree_param":{"num_deleted":"0","num_feature":"79","num_nodes":"13","size_leaf_vector":"1"}},{"base_weights":[9.1831615E-5,-3.809173E-3,9.827694E-3,-3.1880513E-3,-3.1421855E-4,4.8558877E-4,4.9717486E-4,-2.2361155E-3,-3.0192427E-4,-5.167339E-4,-2.8331933E-4,2.2232863E-4,-2.7204733E-4],"categories":[],"categories_nodes":[],"categories_segments":[],"categories_sizes":[],"default_left":[0,0,0,0,0,0,0,0,0,0,0,0,0],"id":61,"left_children":[1,3,5,7,-1,-1,-1,9,-1,11,-1,-1,-1],"loss_changes":[3.4071915E0,9.84472E-2,2.4795532E-4,1.3891953E-1,0E0,0E0,0E0,2.2638966E-1,0E0,6.2496465E-1,0E0,0E0,0E0],"parents":[2147483647,0,0,1,1,2,2,3,3,7,7,9,9],"right_children":[2,4,6,8,-1,-1,-1,10,-1,12,-1,-1,-1],"split_conditions":[1E0,1E0,1E0,1E0,-3.1421855E-4,4.8558877E-4,4.9717486E-4,1E0,-3.0192427E-4,1E0,-2.8331933E-4,2.2232863E-4,-2.7204733E-4],"split_indices":[55,75,60,74,0,0,0,76,0,57,0,0,0],"split_type":[0,0,0,0,0,0,0,0,0,0,0,0,0],"sum_hessian":[8.9709E4,6.4047E4,2.5662E4,5.1201E4,1.2846E4,1.2867E4,1.2795E4,3.8384E4,1.2817E4,2.5569E4,1.2815E4,1.2734E4,1.2835E4],"tree_param":{"num_deleted":"0","num_feature":"79","num_nodes":"13","size_leaf_vector":"1"}},{"base_weights":[1.2696913E-4,-3.598144E-3,4.7181637E-4,-5.4702535E-3,1.9277933E-4,-5.176605E-3,-3.1738394E-4,-4.937063E-3,-2.8277078E-4,-2.5368377E-4,-2.4003527E-4],"categories":[],"categories_nodes":[],"categories_segments":[],"categories_sizes":[],"default_left":[0,0,0,0,0,0,0,0,0,0,0],"id":62,"left_children":[1,3,-1,5,-1,7,-1,9,-1,-1,-1],"loss_changes":[3.1060061E0,8.9265734E-1,0E0,1.3140321E-2,0E0,4.366398E-3,0E0,4.5150518E-4,0E0,0E0,0E0],"parents":[2147483647,0,0,1,1,3,3,5,5,7,7],"right_children":[2,4,-1,6,-1,8,-1,10,-1,-1,-1],"split_conditions":[1E0,1E0,4.7181637E-4,1E0,1.9277933E-4,1E0,-3.1738394E-4,1E0,-2.8277078E-4,-2.5368377E-4,-2.4003527E-4],"split_indices":[55,77,0,75,0,74,0,57,0,0,0],"split_type":[0,0,0,0,0,0,0,0,0,0,0],"sum_hessian":[8.9564E4,6.3968E4,2.5596E4,5.1127E4,1.2841E4,3.8312E4,1.2815E4,2.5544E4,1.2768E4,1.2742E4,1.2802E4],"tree_param":{"num_deleted":"0","num_feature":"79","num_nodes":"11","size_leaf_vector":"1"}},{"base_weights":[-1.6643439E-4,-3.6741754E-3,8.653416E-3,-5.3981375E-3,1.628396E-4,4.2117308E-4,4.4410676E-4,-5.1349616E-3,-3.092876E-4,-5.2708024E-3,-2.4312489E-4,-2.5685053E-4,-2.7011256E-4],"categories":[],"categories_nodes":[],"categories_segments":[],"categories_sizes":[],"default_left":[0,0,0,0,0,0,0,0,0,0,0,0,0],"id":63,"left_children":[1,3,5,7,-1,-1,-1,9,-1,11,-1,-1,-1],"loss_changes":[2.7721164E0,7.6601464E-1,1.2661219E-3,1.0609746E-2,0E0,0E0,0E0,1.3986826E-3,0E0,4.2366982E-4,0E0,0E0,0E0],"parents":[2147483647,0,0,1,1,2,2,3,3,7,7,9,9],"right_children":[2,4,6,8,-1,-1,-1,10,-1,12,-1,-1,-1],"split_conditions":[1E0,1E0,1E0,1E0,1.628396E-4,4.2117308E-4,4.4410676E-4,1E0,-3.092876E-4,1E0,-2.4312489E-4,-2.5685053E-4,-2.7011256E-4],"split_indices":[55,77,60,75,0,0,0,63,0,74,0,0,0],"split_type":[0,0,0,0,0,0,0,0,0,0,0,0,0],"sum_hessian":[8.9601E4,6.4106E4,2.5495E4,5.1337E4,1.2769E4,1.2732E4,1.2763E4,3.8485E4,1.2852E4,2.5669E4,1.2816E4,1.2741E4,1.2928E4],"tree_param":{"num_deleted":"0","num_feature":"79","num_nodes":"13","size_leaf_vector":"1"}},{"base_weights":[-1.1562141E-5,-3.3223657E-3,8.278342E-3,-5.023562E-3,1.7626803E-4,4.090915E-4,4.187394E-4,-4.7973115E-3,-2.8502074E-4,-2.2627076E-4,-2.673194E-4],"categories":[],"categories_nodes":[],"categories_segments":[],"categories_sizes":[],"default_left":[0,0,0,0,0,0,0,0,0,0,0],"id":64,"left_children":[1,3,5,7,-1,-1,-1,9,-1,-1,-1],"loss_changes":[2.469229E0,7.489529E-1,1.7035007E-4,7.858753E-3,0E0,0E0,0E0,5.738735E-3,0E0,0E0,0E0],"parents":[2147483647,0,0,1,1,2,2,3,3,7,7],"right_children":[2,4,6,8,-1,-1,-1,10,-1,-1,-1],"split_conditions":[1E0,1E0,1E0,1E0,1.7626803E-4,4.090915E-4,4.187394E-4,1E0,-2.8502074E-4,-2.2627076E-4,-2.673194E-4],"split_indices":[55,77,60,75,0,0,0,74,0,0,0],"split_type":[0,0,0,0,0,0,0,0,0,0,0],"sum_hessian":[8.9964E4,6.4289E4,2.5675E4,5.1496E4,1.2793E4,1.2876E4,1.2799E4,3.8601E4,1.2895E4,2.5823E4,1.2778E4],"tree_param":{"num_deleted":"0","num_feature":"79","num_nodes":"11","size_leaf_vector":"1"}},{"base_weights":[9.4971554E-5,-3.165387E-3,8.26089E-3,-4.7652316E-3,1.6305105E-4,4.03519E-4,4.2259367E-4,-4.5703487E-3,-2.6743227E-4,-4.398868E-3,-2.4558842E-4,-2.2775427E-4,-2.1204798E-4],"categories":[],"categories_nodes":[],"categories_segments":[],"categories_sizes":[],"default_left":[0,0,0,0,0,0,0,0,0,0,0,0,0],"id":65,"left_children":[1,3,5,7,-1,-1,-1,9,-1,11,-1,-1,-1],"loss_changes":[2.3890083E0,6.593317E-1,8.633137E-4,5.8134794E-3,0E0,0E0,0E0,2.2322536E-3,0E0,6.130636E-4,0E0,0E0,0E0],"parents":[2147483647,0,0,1,1,2,2,3,3,7,7,9,9],"right_children":[2,4,6,8,-1,-1,-1,10,-1,12,-1,-1,-1],"split_conditions":[1E0,1E0,1E0,1E0,1.6305105E-4,4.03519E-4,4.2259367E-4,1E0,-2.6743227E-4,1E0,-2.4558842E-4,-2.2775427E-4,-2.1204798E-4],"split_indices":[55,77,60,75,0,0,0,74,0,57,0,0,0],"split_type":[0,0,0,0,0,0,0,0,0,0,0,0,0],"sum_hessian":[8.973E4,6.4127E4,2.5603E4,5.1345E4,1.2782E4,1.2839E4,1.2764E4,3.8495E4,1.285E4,2.5634E4,1.2861E4,1.2872E4,1.2762E4],"tree_param":{"num_deleted":"0","num_feature":"79","num_nodes":"13","size_leaf_vector":"1"}},{"base_weights":[-4.2443702E-5,-3.0903763E-3,3.8020682E-4,-4.5303726E-3,1.3535455E-4,-4.2617247E-3,-2.6715503E-4,-4.1354084E-3,-2.256482E-4,-2.1067249E-4,-2.0287049E-4],"categories":[],"categories_nodes":[],"categories_segments":[],"categories_sizes":[],"default_left":[0,0,0,0,0,0,0,0,0,0,0],"id":66,"left_children":[1,3,-1,5,-1,7,-1,9,-1,-1,-1],"loss_changes":[2.0967476E0,5.370187E-1,0E0,1.12274885E-2,0E0,1.2104511E-3,0E0,1.398623E-4,0E0,0E0,0E0],"parents":[2147483647,0,0,1,1,3,3,5,5,7,7],"right_children":[2,4,-1,6,-1,8,-1,10,-1,-1,-1],"split_conditions":[1E0,1E0,3.8020682E-4,1E0,1.3535455E-4,1E0,-2.6715503E-4,1E0,-2.256482E-4,-2.1067249E-4,-2.0287049E-4],"split_indices":[55,77,0,75,0,74,0,57,0,0,0],"split_type":[0,0,0,0,0,0,0,0,0,0,0],"sum_hessian":[8.9963E4,6.4324E4,2.5639E4,5.1526E4,1.2798E4,3.873E4,1.2796E4,2.5784E4,1.2946E4,1.2862E4,1.2922E4],"tree_param":{"num_deleted":"0","num_feature":"79","num_nodes":"11","size_leaf_vector":"1"}},{"base_weights":[-2.7024354E-5,-2.8480745E-3,7.023673E-3,-4.316301E-3,1.5160309E-4,3.4787678E-4,3.5450503E-4,-4.378391E-3,-2.0656238E-4,-4.4625006E-3,-2.1044479E-4,-2.3445643E-4,-2.1179568E-4],"categories":[],"categories_nodes":[],"categories_segments":[],"categories_sizes":[],"default_left":[0,0,0,0,0,0,0,0,0,0,0,0,0],"id":67,"left_children":[1,3,5,7,-1,-1,-1,9,-1,11,-1,-1,-1],"loss_changes":[1.7812027E0,5.5220354E-1,6.318092E-5,5.699396E-4,0E0,0E0,0E0,5.273819E-4,0E0,1.2939572E-3,0E0,0E0,0E0],"parents":[2147483647,0,0,1,1,2,2,3,3,7,7,9,9],"right_children":[2,4,6,8,-1,-1,-1,10,-1,12,-1,-1,-1],"split_conditions":[1E0,1E0,1E0,1E0,1.5160309E-4,3.4787678E-4,3.5450503E-4,1E0,-2.0656238E-4,1E0,-2.1044479E-4,-2.3445643E-4,-2.1179568E-4],"split_indices":[55,77,60,74,0,0,0,76,0,63,0,0,0],"split_type":[0,0,0,0,0,0,0,0,0,0,0,0,0],"sum_hessian":[8.9549E4,6.3959E4,2.559E4,5.118E4,1.2779E4,1.2876E4,1.2714E4,3.8305E4,1.2875E4,2.5584E4,1.2721E4,1.2781E4,1.2803E4],"tree_param":{"num_deleted":"0","num_feature":"79","num_nodes":"13","size_leaf_vector":"1"}},{"base_weights":[2.1094219E-4,-9.2213496E-4,3.4788589E-4,-1.7285271E-3,1.5602859E-4,1.5895315E-3,-3.937931E-3,3.5201406E-4,-1.9223755E-4,-2.0343879E-4,-1.8376698E-4],"categories":[],"categories_nodes":[],"categories_segments":[],"categories_sizes":[],"default_left":[0,0,0,0,0,0,0,0,0,0,0],"id":68,"left_children":[1,3,-1,5,-1,7,9,-1,-1,-1,-1],"loss_changes":[6.8549156E-1,2.5029564E-1,0E0,4.692518E-1,0E0,7.5790775E-1,1.3052225E-3,0E0,0E0,0E0,0E0],"parents":[2147483647,0,0,1,1,3,3,5,5,6,6],"right_children":[2,4,-1,6,-1,8,10,-1,-1,-1,-1],"split_conditions":[1E0,1E0,3.4788589E-4,1E0,1.5602859E-4,1E0,1E0,3.5201406E-4,-1.9223755E-4,-2.0343879E-4,-1.8376698E-4],"split_indices":[65,77,0,72,0,57,76,0,0,0,0],"split_type":[0,0,0,0,0,0,0,0,0,0,0],"sum_hessian":[8.9668E4,7.6775E4,1.2893E4,6.4008E4,1.2767E4,2.5585E4,3.8423E4,1.2773E4,1.2812E4,2.5635E4,1.2788E4],"tree_param":{"num_deleted":"0","num_feature":"79","num_nodes":"11","size_leaf_vector":"1"}},{"base_weights":[-1.0889678E-5,-1.1440831E-3,3.3973678E-4,-2.5993483E-3,3.09475E-4,-3.923422E-3,1.352761E-4,-4.0540555E-3,-1.7654964E-4,-3.934524E-3,-2.1471675E-4,-2.0067215E-4,-1.9276406E-4],"categories":[],"categories_nodes":[],"categories_segments":[],"categories_sizes":[],"default_left":[0,0,0,0,0,0,0,0,0,0,0,0,0],"id":69,"left_children":[1,3,-1,5,-1,7,-1,9,-1,11,-1,-1,-1],"loss_changes":[6.915123E-1,8.2036436E-1,0E0,4.5053267E-1,0E0,2.6170611E-3,0E0,1.0889173E-3,0E0,1.4540553E-4,0E0,0E0,0E0],"parents":[2147483647,0,0,1,1,3,3,5,5,7,7,9,9],"right_children":[2,4,-1,6,-1,8,-1,10,-1,12,-1,-1,-1],"split_conditions":[1E0,1E0,3.3973678E-4,1E0,3.09475E-4,1E0,1.352761E-4,1E0,-1.7654964E-4,1E0,-2.1471675E-4,-2.0067215E-4,-1.9276406E-4],"split_indices":[65,60,0,77,0,57,0,75,0,76,0,0,0],"split_type":[0,0,0,0,0,0,0,0,0,0,0,0,0],"sum_hessian":[8.9664E4,7.6866E4,1.2798E4,6.4139E4,1.2727E4,5.1328E4,1.2811E4,3.8502E4,1.2826E4,2.5723E4,1.2779E4,1.2863E4,1.286E4],"tree_param":{"num_deleted":"0","num_feature":"79","num_nodes":"13","size_leaf_vector":"1"}},{"base_weights":[-1.15229865E-4,-2.608117E-3,3.056474E-4,-3.832929E-3,1.1657784E-4,-3.993E-3,-1.6757198E-4,-2.076081E-4,-1.8380307E-4],"categories":[],"categories_nodes":[],"categories_segments":[],"categories_sizes":[],"default_left":[0,0,0,0,0,0,0,0,0],"id":70,"left_children":[1,3,-1,5,-1,7,-1,-1,-1],"loss_changes":[1.389466E0,3.866815E-1,0E0,3.9337873E-3,0E0,1.9232631E-3,0E0,0E0,0E0],"parents":[2147483647,0,0,1,1,3,3,5,5],"right_children":[2,4,-1,6,-1,8,-1,-1,-1],"split_conditions":[1E0,1E0,3.056474E-4,1E0,1.1657784E-4,1E0,-1.6757198E-4,-2.076081E-4,-1.8380307E-4],"split_indices":[55,77,0,57,0,74,0,0,0],"split_type":[0,0,0,0,0,0,0,0,0],"sum_hessian":[8.949E4,6.391E4,2.558E4,5.1212E4,1.2698E4,3.8429E4,1.2783E4,2.5574E4,1.2855E4],"tree_param":{"num_deleted":"0","num_feature":"79","num_nodes":"9","size_leaf_vector":"1"}},{"base_weights":[-5.01272E-5,-2.3584221E-3,5.7335133E-3,-3.4989936E-3,1.1044277E-4,2.7785994E-4,2.9555126E-4,-3.3832225E-3,-1.921382E-4,-1.5943516E-4,-1.886082E-4],"categories":[],"categories_nodes":[],"categories_segments":[],"categories_sizes":[],"default_left":[0,0,0,0,0,0,0,0,0,0,0],"id":71,"left_children":[1,3,5,7,-1,-1,-1,9,-1,-1,-1],"loss_changes":[1.1974462E0,3.33966E-1,7.6788664E-4,2.0285249E-3,0E0,0E0,0E0,2.891928E-3,0E0,0E0,0E0],"parents":[2147483647,0,0,1,1,2,2,3,3,7,7],"right_children":[2,4,6,8,-1,-1,-1,10,-1,-1,-1],"split_conditions":[1E0,1E0,1E0,1E0,1.1044277E-4,2.7785994E-4,2.9555126E-4,1E0,-1.921382E-4,-1.5943516E-4,-1.886082E-4],"split_indices":[55,77,60,74,0,0,0,75,0,0,0],"split_type":[0,0,0,0,0,0,0,0,0,0,0],"sum_hessian":[8.9692E4,6.4107E4,2.5585E4,5.1297E4,1.281E4,1.2852E4,1.2733E4,3.8382E4,1.2915E4,2.5592E4,1.279E4],"tree_param":{"num_deleted":"0","num_feature":"79","num_nodes":"11","size_leaf_vector":"1"}},{"base_weights":[6.980669E-5,2.7443315E-3,-1.9381624E-3,5.632341E-3,-1.4985725E-4,-1.3995657E-3,-1.7857988E-4,2.8461876E-4,2.786182E-4,-5.0528825E-4,-1.5981244E-4,9.9383295E-5,-1.4993921E-4],"categories":[],"categories_nodes":[],"categories_segments":[],"categories_sizes":[],"default_left":[0,0,0,0,0,0,0,0,0,0,0,0,0],"id":72,"left_children":[1,3,5,7,-1,9,-1,-1,-1,11,-1,-1,-1],"loss_changes":[4.8195246E-1,6.381369E-1,4.509075E-2,6.043911E-5,0E0,6.1937943E-2,0E0,0E0,0E0,1.600102E-1,0E0,0E0,0E0],"parents":[2147483647,0,0,1,1,2,2,3,3,5,5,9,9],"right_children":[2,4,6,8,-1,10,-1,-1,-1,12,-1,-1,-1],"split_conditions":[1E0,1E0,1E0,1E0,-1.4985725E-4,1E0,-1.7857988E-4,2.8461876E-4,2.786182E-4,1E0,-1.5981244E-4,9.9383295E-5,-1.4993921E-4],"split_indices":[72,57,75,60,0,76,0,0,0,74,0,0,0],"split_type":[0,0,0,0,0,0,0,0,0,0,0,0,0],"sum_hessian":[8.9741E4,3.8483E4,5.1258E4,2.5604E4,1.2879E4,3.8549E4,1.2709E4,1.2749E4,1.2855E4,2.5739E4,1.281E4,1.2871E4,1.2868E4],"tree_param":{"num_deleted":"0","num_feature":"79","num_nodes":"13","size_leaf_vector":"1"}},{"base_weights":[1.3163695E-4,-2.0611526E-3,5.6345393E-3,-3.1502014E-3,1.1439418E-4,2.460876E-4,3.173862E-4,-3.2570125E-3,-1.4128574E-4,-3.3535333E-3,-1.531533E-4,-1.6922464E-4,-1.6612421E-4],"categories":[],"categories_nodes":[],"categories_segments":[],"categories_sizes":[],"default_left":[0,0,0,0,0,0,0,0,0,0,0,0,0],"id":73,"left_children":[1,3,5,7,-1,-1,-1,9,-1,11,-1,-1,-1],"loss_changes":[1.0779425E0,3.0255347E-1,1.290822E-2,1.7613769E-3,0E0,0E0,0E0,7.0911646E-4,0E0,1.3411045E-5,0E0,0E0,0E0],"parents":[2147483647,0,0,1,1,2,2,3,3,7,7,9,9],"right_children":[2,4,6,8,-1,-1,-1,10,-1,12,-1,-1,-1],"split_conditions":[1E0,1E0,1E0,1E0,1.1439418E-4,2.460876E-4,3.173862E-4,1E0,-1.4128574E-4,1E0,-1.531533E-4,-1.6922464E-4,-1.6612421E-4],"split_indices":[55,77,60,57,0,0,0,76,0,74,0,0,0],"split_type":[0,0,0,0,0,0,0,0,0,0,0,0,0],"sum_hessian":[8.933E4,6.3877E4,2.5453E4,5.1085E4,1.2792E4,1.2734E4,1.2719E4,3.8427E4,1.2658E4,2.5647E4,1.278E4,1.2788E4,1.2859E4],"tree_param":{"num_deleted":"0","num_feature":"79","num_nodes":"13","size_leaf_vector":"1"}},{"base_weights":[-8.4622094E-5,-2.0469504E-3,4.8320503E-3,-3.050905E-3,9.845138E-5,2.3932371E-4,2.4385397E-4,-2.971124E-3,-1.6444385E-4,-3.0152546E-3,-1.4411006E-4,-1.529616E-4,-1.4853713E-4],"categories":[],"categories_nodes":[],"categories_segments":[],"categories_sizes":[],"default_left":[0,0,0,0,0,0,0,0,0,0,0,0,0],"id":74,"left_children":[1,3,5,7,-1,-1,-1,9,-1,11,-1,-1,-1],"loss_changes":[8.656687E-1,2.585651E-1,2.9146671E-5,9.6431375E-4,0E0,0E0,0E0,1.4212728E-4,0E0,4.1157007E-5,0E0,0E0,0E0],"parents":[2147483647,0,0,1,1,2,2,3,3,7,7,9,9],"right_children":[2,4,6,8,-1,-1,-1,10,-1,12,-1,-1,-1],"split_conditions":[1E0,1E0,1E0,1E0,9.845138E-5,2.3932371E-4,2.4385397E-4,1E0,-1.6444385E-4,1E0,-1.4411006E-4,-1.529616E-4,-1.4853713E-4],"split_indices":[55,77,60,75,0,0,0,57,0,76,0,0,0],"split_type":[0,0,0,0,0,0,0,0,0,0,0,0,0],"sum_hessian":[8.9722E4,6.4128E4,2.5594E4,5.1303E4,1.2825E4,1.2773E4,1.2821E4,3.8432E4,1.2871E4,2.5663E4,1.2769E4,1.2875E4,1.2788E4],"tree_param":{"num_deleted":"0","num_feature":"79","num_nodes":"13","size_leaf_vector":"1"}},{"base_weights":[-2.1929973E-5,-1.9669482E-3,4.8390604E-3,-2.9030729E-3,8.946404E-5,2.2660276E-4,2.5730598E-4,-3.0497848E-3,-1.2333626E-4,-3.3379493E-3,-1.235909E-4,-1.7831924E-4,-1.5545996E-4],"categories":[],"categories_nodes":[],"categories_segments":[],"categories_sizes":[],"default_left":[0,0,0,0,0,0,0,0,0,0,0,0,0],"id":75,"left_children":[1,3,5,7,-1,-1,-1,9,-1,11,-1,-1,-1],"loss_changes":[8.47776E-1,2.2519599E-1,2.392292E-3,3.274411E-3,0E0,0E0,0E0,6.3809156E-3,0E0,1.326412E-3,0E0,0E0,0E0],"parents":[2147483647,0,0,1,1,2,2,3,3,7,7,9,9],"right_children":[2,4,6,8,-1,-1,-1,10,-1,12,-1,-1,-1],"split_conditions":[1E0,1E0,1E0,1E0,8.946404E-5,2.2660276E-4,2.5730598E-4,1E0,-1.2333626E-4,1E0,-1.235909E-4,-1.7831924E-4,-1.5545996E-4],"split_indices":[55,77,60,57,0,0,0,76,0,74,0,0,0],"split_type":[0,0,0,0,0,0,0,0,0,0,0,0,0],"sum_hessian":[8.9665E4,6.4041E4,2.5624E4,5.1265E4,1.2776E4,1.2821E4,1.2803E4,3.8361E4,1.2904E4,2.5595E4,1.2766E4,1.2799E4,1.2796E4],"tree_param":{"num_deleted":"0","num_feature":"79","num_nodes":"13","size_leaf_vector":"1"}},{"base_weights":[-3.639205E-5,-2.014903E-3,4.9185334E-3,-2.7964006E-3,5.6731213E-5,2.4286866E-4,2.4898266E-4,-2.638848E-3,-1.636059E-4,-2.5081087E-3,-1.450132E-4,-1.2225348E-4,-1.285322E-4],"categories":[],"categories_nodes":[],"categories_segments":[],"categories_sizes":[],"default_left":[0,0,0,0,0,0,0,0,0,0,0,0,0],"id":76,"left_children":[1,3,5,7,-1,-1,-1,9,-1,11,-1,-1,-1],"loss_changes":[8.764903E-1,1.5726855E-1,7.122755E-5,3.8282275E-3,0E0,0E0,0E0,1.3072193E-3,0E0,9.481609E-5,0E0,0E0,0E0],"parents":[2147483647,0,0,1,1,2,2,3,3,7,7,9,9],"right_children":[2,4,6,8,-1,-1,-1,10,-1,12,-1,-1,-1],"split_conditions":[1E0,1E0,1E0,1E0,5.6731213E-5,2.4286866E-4,2.4898266E-4,1E0,-1.636059E-4,1E0,-1.450132E-4,-1.2225348E-4,-1.285322E-4],"split_indices":[55,77,65,75,0,0,0,74,0,57,0,0,0],"split_type":[0,0,0,0,0,0,0,0,0,0,0,0,0],"sum_hessian":[8.9405E4,6.3893E4,2.5512E4,5.1191E4,1.2702E4,1.2792E4,1.272E4,3.846E4,1.2731E4,2.5645E4,1.2815E4,1.2791E4,1.2854E4],"tree_param":{"num_deleted":"0","num_feature":"79","num_nodes":"13","size_leaf_vector":"1"}},{"base_weights":[-1.4654142E-4,-1.8548267E-3,4.130729E-3,-2.6393887E-3,6.33662E-5,2.0128566E-4,2.1175675E-4,-2.8499404E-3,-1.00314464E-4,-1.5318481E-4,-1.21239376E-4],"categories":[],"categories_nodes":[],"categories_segments":[],"categories_sizes":[],"default_left":[0,0,0,0,0,0,0,0,0,0,0],"id":77,"left_children":[1,3,5,7,-1,-1,-1,9,-1,-1,-1],"loss_changes":[6.5417796E-1,1.5671882E-1,2.630949E-4,6.80992E-3,0E0,0E0,0E0,3.4793317E-3,0E0,0E0,0E0],"parents":[2147483647,0,0,1,1,2,2,3,3,7,7],"right_children":[2,4,6,8,-1,-1,-1,10,-1,-1,-1],"split_conditions":[1E0,1E0,1E0,1E0,6.33662E-5,2.0128566E-4,2.1175675E-4,1E0,-1.00314464E-4,-1.5318481E-4,-1.21239376E-4],"split_indices":[55,77,60,76,0,0,0,57,0,0,0],"split_type":[0,0,0,0,0,0,0,0,0,0,0],"sum_hessian":[8.9528E4,6.3977E4,2.5551E4,5.1129E4,1.2848E4,1.2758E4,1.2793E4,3.8366E4,1.2763E4,2.5526E4,1.284E4],"tree_param":{"num_deleted":"0","num_feature":"79","num_nodes":"11","size_leaf_vector":"1"}},{"base_weights":[-9.113846E-5,-1.7349414E-3,2.0121712E-4,-1.5260315E-3,-1.283348E-4,-1.2576497E-3,-1.16554984E-4,-3.6773068E-5,-1.1510254E-4],"categories":[],"categories_nodes":[],"categories_segments":[],"categories_sizes":[],"default_left":[0,0,0,0,0,0,0,0,0],"id":78,"left_children":[1,3,-1,5,-1,7,-1,-1,-1],"loss_changes":[6.069663E-1,1.1136472E-2,0E0,1.106935E-2,0E0,2.0959761E-2,0E0,0E0,0E0],"parents":[2147483647,0,0,1,1,3,3,5,5],"right_children":[2,4,-1,6,-1,8,-1,-1,-1],"split_conditions":[1E0,1E0,2.0121712E-4,1E0,-1.283348E-4,1E0,-1.16554984E-4,-3.6773068E-5,-1.1510254E-4],"split_indices":[55,74,0,57,0,76,0,0,0],"split_type":[0,0,0,0,0,0,0,0,0],"sum_hessian":[8.9719E4,6.4112E4,2.5607E4,5.1244E4,1.2868E4,3.8434E4,1.281E4,2.5624E4,1.281E4],"tree_param":{"num_deleted":"0","num_feature":"79","num_nodes":"9","size_leaf_vector":"1"}},{"base_weights":[2.9465786E-4,-1.2478026E-3,4.161315E-3,-2.137771E-3,1.17184725E-4,2.0370744E-4,2.1237954E-4,-1.9873704E-3,-1.293672E-4,-9.3201445E-5,-1.11780035E-4],"categories":[],"categories_nodes":[],"categories_segments":[],"categories_sizes":[],"default_left":[0,0,0,0,0,0,0,0,0,0,0],"id":79,"left_children":[1,3,5,7,-1,-1,-1,9,-1,-1,-1],"loss_changes":[5.3371453E-1,2.0447037E-1,1.746118E-4,3.4612715E-3,0E0,0E0,0E0,1.1721104E-3,0E0,0E0,0E0],"parents":[2147483647,0,0,1,1,2,2,3,3,7,7],"right_children":[2,4,6,8,-1,-1,-1,10,-1,-1,-1],"split_conditions":[1E0,1E0,1E0,1E0,1.17184725E-4,2.0370744E-4,2.1237954E-4,1E0,-1.293672E-4,-9.3201445E-5,-1.11780035E-4],"split_indices":[55,77,65,75,0,0,0,74,0,0,0],"split_type":[0,0,0,0,0,0,0,0,0,0,0],"sum_hessian":[8.9485E4,6.3968E4,2.5517E4,5.1265E4,1.2703E4,1.2717E4,1.28E4,3.8418E4,1.2847E4,2.5671E4,1.2747E4],"tree_param":{"num_deleted":"0","num_feature":"79","num_nodes":"11","size_leaf_vector":"1"}},{"base_weights":[6.79742E-5,-5.876732E-4,2.0068814E-4,-1.4030962E-3,1.7483455E-4,-2.176278E-3,8.5119595E-5,-1.9950108E-3,-1.3622157E-4,-2.049954E-3,-9.420566E-5,-1.085093E-4,-9.645569E-5],"categories":[],"categories_nodes":[],"categories_segments":[],"categories_sizes":[],"default_left":[0,0,0,0,0,0,0,0,0,0,0,0,0],"id":80,"left_children":[1,3,-1,5,-1,7,-1,9,-1,11,-1,-1,-1],"loss_changes":[2.3189223E-1,2.5599927E-1,0E0,1.5384981E-1,0E0,5.091965E-3,0E0,2.310574E-4,0E0,3.7023425E-4,0E0,0E0,0E0],"parents":[2147483647,0,0,1,1,3,3,5,5,7,7,9,9],"right_children":[2,4,-1,6,-1,8,-1,10,-1,12,-1,-1,-1],"split_conditions":[1E0,1E0,2.0068814E-4,1E0,1.7483455E-4,1E0,8.5119595E-5,1E0,-1.3622157E-4,1E0,-9.420566E-5,-1.085093E-4,-9.645569E-5],"split_indices":[65,60,0,77,0,75,0,57,0,76,0,0,0],"split_type":[0,0,0,0,0,0,0,0,0,0,0,0,0],"sum_hessian":[8.9634E4,7.6863E4,1.2771E4,6.4072E4,1.2791E4,5.13E4,1.2772E4,3.8555E4,1.2745E4,2.577E4,1.2785E4,1.2909E4,1.2861E4],"tree_param":{"num_deleted":"0","num_feature":"79","num_nodes":"13","size_leaf_vector":"1"}},{"base_weights":[5.940825E-5,-6.4107374E-4,2.1206359E-4,-1.4607088E-3,1.7260485E-4,-1.3093841E-3,-1.0291536E-4,-1.1009972E-3,-9.675236E-5,-4.0296127E-5,-8.463521E-5],"categories":[],"categories_nodes":[],"categories_segments":[],"categories_sizes":[],"default_left":[0,0,0,0,0,0,0,0,0,0,0],"id":81,"left_children":[1,3,-1,5,-1,7,-1,9,-1,-1,-1],"loss_changes":[2.6258698E-1,2.5759476E-1,0E0,5.7822764E-3,0E0,6.6535175E-3,0E0,6.6850334E-3,0E0,0E0,0E0],"parents":[2147483647,0,0,1,1,3,3,5,5,7,7],"right_children":[2,4,-1,6,-1,8,-1,10,-1,-1,-1],"split_conditions":[1E0,1E0,2.1206359E-4,1E0,1.7260485E-4,1E0,-1.0291536E-4,1E0,-9.675236E-5,-4.0296127E-5,-8.463521E-5],"split_indices":[65,60,0,74,0,76,0,57,0,0,0],"split_type":[0,0,0,0,0,0,0,0,0,0,0],"sum_hessian":[8.9639E4,7.6779E4,1.286E4,6.397E4,1.2809E4,5.1047E4,1.2923E4,3.8295E4,1.2752E4,2.5554E4,1.2741E4],"tree_param":{"num_deleted":"0","num_feature":"79","num_nodes":"11","size_leaf_vector":"1"}},{"base_weights":[-5.2892323E-5,-1.4356171E-3,3.4212484E-3,-2.1407325E-3,6.984977E-5,1.6982766E-4,1.7228049E-4,-1.949146E-3,-1.357118E-4,-9.214272E-5,-1.08070184E-4],"categories":[],"categories_nodes":[],"categories_segments":[],"categories_sizes":[],"default_left":[0,0,0,0,0,0,0,0,0,0,0],"id":82,"left_children":[1,3,5,7,-1,-1,-1,9,-1,-1,-1],"loss_changes":[4.302219E-1,1.2795521E-1,3.6358833E-6,5.630657E-3,0E0,0E0,0E0,8.635819E-4,0E0,0E0,0E0],"parents":[2147483647,0,0,1,1,2,2,3,3,7,7],"right_children":[2,4,6,8,-1,-1,-1,10,-1,-1,-1],"split_conditions":[1E0,1E0,1E0,1E0,6.984977E-5,1.6982766E-4,1.7228049E-4,1E0,-1.357118E-4,-9.214272E-5,-1.08070184E-4],"split_indices":[55,77,65,75,0,0,0,74,0,0,0],"split_type":[0,0,0,0,0,0,0,0,0,0,0],"sum_hessian":[8.9557E4,6.4061E4,2.5496E4,5.1293E4,1.2768E4,1.2731E4,1.2765E4,3.8452E4,1.2841E4,2.5628E4,1.2824E4],"tree_param":{"num_deleted":"0","num_feature":"79","num_nodes":"11","size_leaf_vector":"1"}},{"base_weights":[-1.4315045E-4,-1.2968424E-3,2.7319E-3,-2.005748E-3,7.728806E-5,1.2956354E-4,1.4367515E-4,-1.8090022E-3,-1.2964226E-4,-1.7826156E-3,-9.310169E-5,-9.02788E-5,-8.796806E-5],"categories":[],"categories_nodes":[],"categories_segments":[],"categories_sizes":[],"default_left":[0,0,0,0,0,0,0,0,0,0,0,0,0],"id":83,"left_children":[1,3,5,7,-1,-1,-1,9,-1,11,-1,-1,-1],"loss_changes":[2.9752815E-1,1.289981E-1,5.040765E-4,5.913496E-3,0E0,0E0,0E0,5.0395727E-5,0E0,1.052022E-5,0E0,0E0,0E0],"parents":[2147483647,0,0,1,1,2,2,3,3,7,7,9,9],"right_children":[2,4,6,8,-1,-1,-1,10,-1,12,-1,-1,-1],"split_conditions":[1E0,1E0,1E0,1E0,7.728806E-5,1.2956354E-4,1.4367515E-4,1E0,-1.2964226E-4,1E0,-9.310169E-5,-9.02788E-5,-8.796806E-5],"split_indices":[55,77,60,75,0,0,0,76,0,57,0,0,0],"split_type":[0,0,0,0,0,0,0,0,0,0,0,0,0],"sum_hessian":[8.9698E4,6.4012E4,2.5686E4,5.1235E4,1.2777E4,1.2897E4,1.2789E4,3.8378E4,1.2857E4,2.565E4,1.2728E4,1.2868E4,1.2782E4],"tree_param":{"num_deleted":"0","num_feature":"79","num_nodes":"13","size_leaf_vector":"1"}},{"base_weights":[2.1006786E-5,-1.1653926E-3,2.9960063E-3,-1.8466169E-3,7.811268E-5,1.5115998E-4,1.4843565E-4,-1.7386284E-3,-1.0852486E-4,-1.5983394E-3,-1.00798345E-4,-7.58699E-5,-8.3960644E-5],"categories":[],"categories_nodes":[],"categories_segments":[],"categories_sizes":[],"default_left":[0,0,0,0,0,0,0,0,0,0,0,0,0],"id":84,"left_children":[1,3,5,7,-1,-1,-1,9,-1,11,-1,-1,-1],"loss_changes":[3.1653595E-1,1.1913559E-1,9.998679E-6,1.7905235E-3,0E0,0E0,0E0,1.493901E-3,0E0,1.6476214E-4,0E0,0E0,0E0],"parents":[2147483647,0,0,1,1,2,2,3,3,7,7,9,9],"right_children":[2,4,6,8,-1,-1,-1,10,-1,12,-1,-1,-1],"split_conditions":[1E0,1E0,1E0,1E0,7.811268E-5,1.5115998E-4,1.4843565E-4,1E0,-1.0852486E-4,1E0,-1.00798345E-4,-7.58699E-5,-8.3960644E-5],"split_indices":[55,77,60,75,0,0,0,74,0,63,0,0,0],"split_type":[0,0,0,0,0,0,0,0,0,0,0,0,0],"sum_hessian":[8.968E4,6.4113E4,2.5567E4,5.1301E4,1.2812E4,1.2752E4,1.2815E4,3.8478E4,1.2823E4,2.5557E4,1.2921E4,1.2783E4,1.2774E4],"tree_param":{"num_deleted":"0","num_feature":"79","num_nodes":"13","size_leaf_vector":"1"}},{"base_weights":[-1.728693E-5,-1.1456141E-3,2.8152477E-3,-1.6758345E-3,4.930484E-5,1.3363599E-4,1.4788109E-4,-1.7405661E-3,-7.413312E-5,-1.8400793E-3,-7.711094E-5,-1.0673497E-4,-7.730265E-5],"categories":[],"categories_nodes":[],"categories_segments":[],"categories_sizes":[],"default_left":[0,0,0,0,0,0,0,0,0,0,0,0,0],"id":85,"left_children":[1,3,5,7,-1,-1,-1,9,-1,11,-1,-1,-1],"loss_changes":[2.8578863E-1,7.227945E-2,5.0902367E-4,6.377548E-4,0E0,0E0,0E0,7.5414777E-4,0E0,2.2085235E-3,0E0,0E0,0E0],"parents":[2147483647,0,0,1,1,2,2,3,3,7,7,9,9],"right_children":[2,4,6,8,-1,-1,-1,10,-1,12,-1,-1,-1],"split_conditions":[1E0,1E0,1E0,1E0,4.930484E-5,1.3363599E-4,1.4788109E-4,1E0,-7.413312E-5,1E0,-7.711094E-5,-1.0673497E-4,-7.730265E-5],"split_indices":[55,77,60,57,0,0,0,74,0,76,0,0,0],"split_type":[0,0,0,0,0,0,0,0,0,0,0,0,0],"sum_hessian":[8.9418E4,6.3946E4,2.5472E4,5.1209E4,1.2737E4,1.2739E4,1.2733E4,3.835E4,1.2859E4,2.5532E4,1.2818E4,1.275E4,1.2782E4],"tree_param":{"num_deleted":"0","num_feature":"79","num_nodes":"13","size_leaf_vector":"1"}},{"base_weights":[1.8155084E-6,1.2857335E-3,-9.6282945E-4,2.6444946E-3,-7.048708E-5,-1.7210733E-3,6.664041E-5,1.3455444E-4,1.298669E-4,-1.6339496E-3,-9.4838935E-5,-7.8976E-5,-8.438777E-5],"categories":[],"categories_nodes":[],"categories_segments":[],"categories_sizes":[],"default_left":[0,0,0,0,0,0,0,0,0,0,0,0,0],"id":86,"left_children":[1,3,5,7,-1,9,-1,-1,-1,11,-1,-1,-1],"loss_changes":[1.1097804E-1,1.4079413E-1,8.906108E-2,4.915893E-5,0E0,5.856678E-4,0E0,0E0,0E0,7.265061E-5,0E0,0E0,0E0],"parents":[2147483647,0,0,1,1,2,2,3,3,5,5,9,9],"right_children":[2,4,6,8,-1,10,-1,-1,-1,12,-1,-1,-1],"split_conditions":[1E0,1E0,1E0,1E0,-7.048708E-5,1E0,6.664041E-5,1.3455444E-4,1.298669E-4,1E0,-9.4838935E-5,-7.8976E-5,-8.438777E-5],"split_indices":[72,57,77,60,0,75,0,0,0,74,0,0,0],"split_type":[0,0,0,0,0,0,0,0,0,0,0,0,0],"sum_hessian":[8.9603E4,3.844E4,5.1163E4,2.5557E4,1.2883E4,3.846E4,1.2703E4,1.2827E4,1.273E4,2.5718E4,1.2742E4,1.28E4,1.2918E4],"tree_param":{"num_deleted":"0","num_feature":"79","num_nodes":"13","size_leaf_vector":"1"}},{"base_weights":[2.5990837E-5,-9.019266E-4,2.3530724E-3,-1.6191462E-3,9.789681E-5,9.9678226E-5,1.3566906E-4,-1.4794909E-3,-1.0175527E-4,-1.4372899E-3,-7.820009E-5,-7.091805E-5,-7.2813236E-5],"categories":[],"categories_nodes":[],"categories_segments":[],"categories_sizes":[],"default_left":[0,0,0,0,0,0,0,0,0,0,0,0,0],"id":87,"left_children":[1,3,5,7,-1,-1,-1,9,-1,11,-1,-1,-1],"loss_changes":[1.9382013E-1,1.316275E-1,3.309086E-3,2.9773414E-3,0E0,0E0,0E0,1.347512E-4,0E0,7.137656E-6,0E0,0E0,0E0],"parents":[2147483647,0,0,1,1,2,2,3,3,7,7,9,9],"right_children":[2,4,6,8,-1,-1,-1,10,-1,12,-1,-1,-1],"split_conditions":[1E0,1E0,1E0,1E0,9.789681E-5,9.9678226E-5,1.3566906E-4,1E0,-1.0175527E-4,1E0,-7.820009E-5,-7.091805E-5,-7.2813236E-5],"split_indices":[55,77,60,75,0,0,0,76,0,57,0,0,0],"split_type":[0,0,0,0,0,0,0,0,0,0,0,0,0],"sum_hessian":[8.9757E4,6.417E4,2.5587E4,5.1304E4,1.2866E4,1.2811E4,1.2776E4,3.8412E4,1.2892E4,2.5631E4,1.2781E4,1.2869E4,1.2762E4],"tree_param":{"num_deleted":"0","num_feature":"79","num_nodes":"13","size_leaf_vector":"1"}},{"base_weights":[1.3724076E-4,-8.077124E-4,2.4989906E-3,-1.4558382E-3,9.0182664E-5,1.3930991E-4,1.10553556E-4,-1.2955936E-3,-9.67046E-5,-6.1715975E-5,-7.082022E-5],"categories":[],"categories_nodes":[],"categories_segments":[],"categories_sizes":[],"default_left":[0,0,0,0,0,0,0,0,0,0,0],"id":88,"left_children":[1,3,5,7,-1,-1,-1,9,-1,-1,-1],"loss_changes":[1.9991039E-1,1.0828499E-1,2.1106154E-3,3.9257035E-3,0E0,0E0,0E0,2.824813E-4,0E0,0E0,0E0],"parents":[2147483647,0,0,1,1,2,2,3,3,7,7],"right_children":[2,4,6,8,-1,-1,-1,10,-1,-1,-1],"split_conditions":[1E0,1E0,1E0,1E0,9.0182664E-5,1.3930991E-4,1.10553556E-4,1E0,-9.67046E-5,-6.1715975E-5,-7.082022E-5],"split_indices":[55,77,60,75,0,0,0,76,0,0,0],"split_type":[0,0,0,0,0,0,0,0,0,0,0],"sum_hessian":[8.9574E4,6.3977E4,2.5597E4,5.1256E4,1.2721E4,1.281E4,1.2787E4,3.8395E4,1.2861E4,2.5482E4,1.2913E4],"tree_param":{"num_deleted":"0","num_feature":"79","num_nodes":"11","size_leaf_vector":"1"}},{"base_weights":[1.13372305E-4,-8.1284717E-4,2.4454808E-3,-1.423331E-3,8.0229314E-5,1.3588085E-4,1.08616056E-4,-1.505998E-3,-5.8718655E-5,-1.6189648E-3,-6.401712E-5,-9.7214615E-5,-6.479167E-5],"categories":[],"categories_nodes":[],"categories_segments":[],"categories_sizes":[],"default_left":[0,0,0,0,0,0,0,0,0,0,0,0,0],"id":89,"left_children":[1,3,5,7,-1,-1,-1,9,-1,11,-1,-1,-1],"loss_changes":[1.9417916E-1,9.495845E-2,1.8936992E-3,1.0554567E-3,0E0,0E0,0E0,9.809062E-4,0E0,2.6984215E-3,0E0,0E0,0E0],"parents":[2147483647,0,0,1,1,2,2,3,3,7,7,9,9],"right_children":[2,4,6,8,-1,-1,-1,10,-1,12,-1,-1,-1],"split_conditions":[1E0,1E0,1E0,1E0,8.0229314E-5,1.3588085E-4,1.08616056E-4,1E0,-5.8718655E-5,1E0,-6.401712E-5,-9.7214615E-5,-6.479167E-5],"split_indices":[55,77,65,57,0,0,0,74,0,76,0,0,0],"split_type":[0,0,0,0,0,0,0,0,0,0,0,0,0],"sum_hessian":[8.9894E4,6.4341E4,2.5553E4,5.1369E4,1.2972E4,1.2796E4,1.2757E4,3.856E4,1.2809E4,2.5692E4,1.2868E4,1.28E4,1.2892E4],"tree_param":{"num_deleted":"0","num_feature":"79","num_nodes":"13","size_leaf_vector":"1"}},{"base_weights":[1.4771636E-4,-8.2880934E-4,2.5990002E-3,-7.519784E-4,-5.6732424E-5,1.2089333E-4,1.3892665E-4,-3.3996475E-5,-4.832701E-5],"categories":[],"categories_nodes":[],"categories_segments":[],"categories_sizes":[],"default_left":[0,0,0,0,0,0,0,0,0],"id":90,"left_children":[1,3,5,7,-1,-1,-1,-1,-1],"loss_changes":[2.146849E-1,1.5062094E-3,8.241534E-4,7.917993E-4,0E0,0E0,0E0,0E0,0E0],"parents":[2147483647,0,0,1,1,2,2,3,3],"right_children":[2,4,6,8,-1,-1,-1,-1,-1],"split_conditions":[1E0,1E0,1E0,1E0,-5.6732424E-5,1.2089333E-4,1.3892665E-4,-3.3996475E-5,-4.832701E-5],"split_indices":[55,74,60,57,0,0,0,0,0],"split_type":[0,0,0,0,0,0,0,0,0],"sum_hessian":[8.9684E4,6.4135E4,2.5549E4,5.1261E4,1.2874E4,1.2725E4,1.2824E4,3.8378E4,1.2883E4],"tree_param":{"num_deleted":"0","num_feature":"79","num_nodes":"9","size_leaf_vector":"1"}},{"base_weights":[-2.1799475E-4,-1.0565773E-3,9.411783E-5,-9.782419E-4,-6.854303E-5,-4.5071687E-5,-6.045591E-5],"categories":[],"categories_nodes":[],"categories_segments":[],"categories_sizes":[],"default_left":[0,0,0,0,0,0,0],"id":91,"left_children":[1,3,-1,5,-1,-1,-1],"loss_changes":[1.5783192E-1,1.575321E-3,0E0,9.080358E-4,0E0,0E0,0E0],"parents":[2147483647,0,0,1,1,3,3],"right_children":[2,4,-1,6,-1,-1,-1],"split_conditions":[1E0,1E0,9.411783E-5,1E0,-6.854303E-5,-4.5071687E-5,-6.045591E-5],"split_indices":[55,76,0,63,0,0,0],"split_type":[0,0,0,0,0,0,0],"sum_hessian":[8.9608E4,6.404E4,2.5568E4,5.1266E4,1.2774E4,3.8472E4,1.2794E4],"tree_param":{"num_deleted":"0","num_feature":"79","num_nodes":"7","size_leaf_vector":"1"}},{"base_weights":[-1.1639453E-5,-7.081613E-4,1.7274506E-3,-1.1592845E-3,5.4401433E-5,8.2053026E-5,9.067117E-5,-1.0202749E-3,-7.8741185E-5,-1.1014156E-3,-4.28887E-5,-5.2659594E-5,-5.746657E-5],"categories":[],"categories_nodes":[],"categories_segments":[],"categories_sizes":[],"default_left":[0,0,0,0,0,0,0,0,0,0,0,0,0],"id":92,"left_children":[1,3,5,7,-1,-1,-1,9,-1,11,-1,-1,-1],"loss_changes":[1.08557984E-1,5.185335E-2,1.8737465E-4,2.9527843E-3,0E0,0E0,0E0,5.044304E-4,0E0,5.784817E-5,0E0,0E0,0E0],"parents":[2147483647,0,0,1,1,2,2,3,3,7,7,9,9],"right_children":[2,4,6,8,-1,-1,-1,10,-1,12,-1,-1,-1],"split_conditions":[1E0,1E0,1E0,1E0,5.4401433E-5,8.2053026E-5,9.067117E-5,1E0,-7.8741185E-5,1E0,-4.28887E-5,-5.2659594E-5,-5.746657E-5],"split_indices":[55,77,60,75,0,0,0,57,0,74,0,0,0],"split_type":[0,0,0,0,0,0,0,0,0,0,0,0,0],"sum_hessian":[8.9618E4,6.399E4,2.5628E4,5.1145E4,1.2845E4,1.2793E4,1.2835E4,3.8327E4,1.2818E4,2.5559E4,1.2768E4,1.275E4,1.2809E4],"tree_param":{"num_deleted":"0","num_feature":"79","num_nodes":"13","size_leaf_vector":"1"}},{"base_weights":[-3.9998977E-5,-7.15911E-4,1.6645677E-3,-1.188337E-3,5.918133E-5,7.0699316E-5,9.5729214E-5,-1.2445013E-3,-5.093538E-5,-1.301292E-3,-5.6498917E-5,-7.360009E-5,-5.6536646E-5],"categories":[],"categories_nodes":[],"categories_segments":[],"categories_sizes":[],"default_left":[0,0,0,0,0,0,0,0,0,0,0,0,0],"id":93,"left_children":[1,3,5,7,-1,-1,-1,9,-1,11,-1,-1,-1],"loss_changes":[1.03044875E-1,5.7473008E-2,1.5882775E-3,4.8736483E-4,0E0,0E0,0E0,2.49099E-4,0E0,7.4801594E-4,0E0,0E0,0E0],"parents":[2147483647,0,0,1,1,2,2,3,3,7,7,9,9],"right_children":[2,4,6,8,-1,-1,-1,10,-1,12,-1,-1,-1],"split_conditions":[1E0,1E0,1E0,1E0,5.918133E-5,7.0699316E-5,9.5729214E-5,1E0,-5.093538E-5,1E0,-5.6498917E-5,-7.360009E-5,-5.6536646E-5],"split_indices":[55,77,65,76,0,0,0,57,0,74,0,0,0],"split_type":[0,0,0,0,0,0,0,0,0,0,0,0,0],"sum_hessian":[8.9436E4,6.4042E4,2.5394E4,5.1287E4,1.2755E4,1.2686E4,1.2708E4,3.8525E4,1.2762E4,2.5747E4,1.2778E4,1.2864E4,1.2883E4],"tree_param":{"num_deleted":"0","num_feature":"79","num_nodes":"13","size_leaf_vector":"1"}},{"base_weights":[6.203459E-5,-6.2366214E-4,1.7761936E-3,-1.1674035E-3,7.754212E-5,8.2186954E-5,9.543012E-5,-1.1026337E-3,-6.812299E-5,-1.0549049E-3,-5.98971E-5,-4.665572E-5,-5.8895654E-5],"categories":[],"categories_nodes":[],"categories_segments":[],"categories_sizes":[],"default_left":[0,0,0,0,0,0,0,0,0,0,0,0,0],"id":94,"left_children":[1,3,5,7,-1,-1,-1,9,-1,11,-1,-1,-1],"loss_changes":[1.0526227E-1,7.563436E-2,4.4561923E-4,6.449893E-4,0E0,0E0,0E0,1.7351285E-4,0E0,3.825538E-4,0E0,0E0,0E0],"parents":[2147483647,0,0,1,1,2,2,3,3,7,7,9,9],"right_children":[2,4,6,8,-1,-1,-1,10,-1,12,-1,-1,-1],"split_conditions":[1E0,1E0,1E0,1E0,7.754212E-5,8.2186954E-5,9.543012E-5,1E0,-6.812299E-5,1E0,-5.98971E-5,-4.665572E-5,-5.8895654E-5],"split_indices":[55,77,65,75,0,0,0,74,0,57,0,0,0],"split_type":[0,0,0,0,0,0,0,0,0,0,0,0,0],"sum_hessian":[8.9553E4,6.3966E4,2.5587E4,5.1171E4,1.2795E4,1.2798E4,1.2789E4,3.842E4,1.2751E4,2.5608E4,1.2812E4,1.2872E4,1.2736E4],"tree_param":{"num_deleted":"0","num_feature":"79","num_nodes":"13","size_leaf_vector":"1"}},{"base_weights":[-2.2673259E-5,-7.66596E-4,1.8256018E-3,-1.1573817E-3,4.02554E-5,8.041094E-5,1.02178536E-4,-1.0655306E-3,-7.157436E-5,-1.0409161E-3,-5.5717737E-5,-4.867838E-5,-5.540362E-5],"categories":[],"categories_nodes":[],"categories_segments":[],"categories_sizes":[],"default_left":[0,0,0,0,0,0,0,0,0,0,0,0,0],"id":95,"left_children":[1,3,5,7,-1,-1,-1,9,-1,11,-1,-1,-1],"loss_changes":[1.2331317E-1,3.9276537E-2,1.2162477E-3,1.2878552E-3,0E0,0E0,0E0,4.4945627E-5,0E0,1.1434592E-4,0E0,0E0,0E0],"parents":[2147483647,0,0,1,1,2,2,3,3,7,7,9,9],"right_children":[2,4,6,8,-1,-1,-1,10,-1,12,-1,-1,-1],"split_conditions":[1E0,1E0,1E0,1E0,4.02554E-5,8.041094E-5,1.02178536E-4,1E0,-7.157436E-5,1E0,-5.5717737E-5,-4.867838E-5,-5.540362E-5],"split_indices":[55,77,60,76,0,0,0,74,0,63,0,0,0],"split_type":[0,0,0,0,0,0,0,0,0,0,0,0,0],"sum_hessian":[8.9682E4,6.3945E4,2.5737E4,5.1212E4,1.2733E4,1.289E4,1.2847E4,3.8362E4,1.285E4,2.5519E4,1.2843E4,1.2749E4,1.277E4],"tree_param":{"num_deleted":"0","num_feature":"79","num_nodes":"13","size_leaf_vector":"1"}},{"base_weights":[1.6370386E-5,-6.922245E-4,1.7933575E-3,-1.0102035E-3,2.8917768E-5,8.2952756E-5,9.6413445E-5,-1.0544342E-3,-4.3851345E-5,-1.1171339E-3,-4.644591E-5,-5.647238E-5,-5.523992E-5],"categories":[],"categories_nodes":[],"categories_segments":[],"categories_sizes":[],"default_left":[0,0,0,0,0,0,0,0,0,0,0,0,0],"id":96,"left_children":[1,3,5,7,-1,-1,-1,9,-1,11,-1,-1,-1],"loss_changes":[1.1265612E-1,2.5842778E-2,4.5894086E-4,3.0042976E-4,0E0,0E0,0E0,3.0116364E-4,0E0,2.6412308E-6,0E0,0E0,0E0],"parents":[2147483647,0,0,1,1,2,2,3,3,7,7,9,9],"right_children":[2,4,6,8,-1,-1,-1,10,-1,12,-1,-1,-1],"split_conditions":[1E0,1E0,1E0,1E0,2.8917768E-5,8.2952756E-5,9.6413445E-5,1E0,-4.3851345E-5,1E0,-4.644591E-5,-5.647238E-5,-5.523992E-5],"split_indices":[55,77,60,74,0,0,0,76,0,57,0,0,0],"split_type":[0,0,0,0,0,0,0,0,0,0,0,0,0],"sum_hessian":[8.9467E4,6.3962E4,2.5505E4,5.1159E4,1.2803E4,1.2788E4,1.2717E4,3.8399E4,1.276E4,2.5602E4,1.2797E4,1.2767E4,1.2835E4],"tree_param":{"num_deleted":"0","num_feature":"79","num_nodes":"13","size_leaf_vector":"1"}},{"base_weights":[8.507778E-5,-4.9023796E-4,1.5217373E-3,-9.829896E-4,7.4051866E-5,7.52985E-5,7.686478E-5,-1.1590826E-3,-2.278727E-5,-1.0177287E-3,-7.211375E-5,-4.7355E-5,-5.4444066E-5],"categories":[],"categories_nodes":[],"categories_segments":[],"categories_sizes":[],"default_left":[0,0,0,0,0,0,0,0,0,0,0,0,0],"id":97,"left_children":[1,3,5,7,-1,-1,-1,9,-1,11,-1,-1,-1],"loss_changes":[7.4121736E-2,6.2201783E-2,3.9748847E-6,4.755877E-3,0E0,0E0,0E0,1.5358143E-3,0E0,1.2771972E-4,0E0,0E0,0E0],"parents":[2147483647,0,0,1,1,2,2,3,3,7,7,9,9],"right_children":[2,4,6,8,-1,-1,-1,10,-1,12,-1,-1,-1],"split_conditions":[1E0,1E0,1E0,1E0,7.4051866E-5,7.52985E-5,7.686478E-5,1E0,-2.278727E-5,1E0,-7.211375E-5,-4.7355E-5,-5.4444066E-5],"split_indices":[55,77,60,57,0,0,0,75,0,74,0,0,0],"split_type":[0,0,0,0,0,0,0,0,0,0,0,0,0],"sum_hessian":[8.9676E4,6.4034E4,2.5642E4,5.1229E4,1.2805E4,1.2784E4,1.2858E4,3.8402E4,1.2827E4,2.5619E4,1.2783E4,1.2864E4,1.2755E4],"tree_param":{"num_deleted":"0","num_feature":"79","num_nodes":"13","size_leaf_vector":"1"}},{"base_weights":[-3.7420818E-5,-6.5895956E-4,7.5733704E-5,-8.5671764E-4,6.5589497E-6,-8.877023E-4,-3.818044E-5,-9.2633965E-4,-4.0509545E-5,-5.055441E-5,-4.20419E-5],"categories":[],"categories_nodes":[],"categories_segments":[],"categories_sizes":[],"default_left":[0,0,0,0,0,0,0,0,0,0,0],"id":98,"left_children":[1,3,-1,5,-1,7,-1,9,-1,-1,-1],"loss_changes":[8.610317E-2,9.958794E-3,0E0,1.4638528E-4,0E0,1.1377409E-4,0E0,1.8402003E-4,0E0,0E0,0E0],"parents":[2147483647,0,0,1,1,3,3,5,5,7,7],"right_children":[2,4,-1,6,-1,8,-1,10,-1,-1,-1],"split_conditions":[1E0,1E0,7.5733704E-5,1E0,6.5589497E-6,1E0,-3.818044E-5,1E0,-4.0509545E-5,-5.055441E-5,-4.20419E-5],"split_indices":[55,77,0,76,0,74,0,57,0,0,0],"split_type":[0,0,0,0,0,0,0,0,0,0,0],"sum_hessian":[8.9253E4,6.3732E4,2.5521E4,5.0974E4,1.2758E4,3.824E4,1.2734E4,2.5512E4,1.2728E4,1.2807E4,1.2705E4],"tree_param":{"num_deleted":"0","num_feature":"79","num_nodes":"11","size_leaf_vector":"1"}},{"base_weights":[2.5077368E-5,-6.7319034E-4,1.7764638E-3,-1.0369477E-3,3.896438E-5,1.0618162E-4,7.1343435E-5,-9.941881E-4,-5.8226255E-5,-9.57392E-4,-5.338299E-5,-4.6247314E-5,-4.949347E-5],"categories":[],"categories_nodes":[],"categories_segments":[],"categories_sizes":[],"default_left":[0,0,0,0,0,0,0,0,0,0,0,0,0],"id":99,"left_children":[1,3,5,7,-1,-1,-1,9,-1,11,-1,-1,-1],"loss_changes":[1.0975855E-1,3.3903413E-2,3.1019375E-3,2.7877837E-4,0E0,0E0,0E0,1.02903694E-4,0E0,2.608262E-5,0E0,0E0,0E0],"parents":[2147483647,0,0,1,1,2,2,3,3,7,7,9,9],"right_children":[2,4,6,8,-1,-1,-1,10,-1,12,-1,-1,-1],"split_conditions":[1E0,1E0,1E0,1E0,3.896438E-5,1.0618162E-4,7.1343435E-5,1E0,-5.8226255E-5,1E0,-5.338299E-5,-4.6247314E-5,-4.949347E-5],"split_indices":[55,77,60,75,0,0,0,76,0,57,0,0,0],"split_type":[0,0,0,0,0,0,0,0,0,0,0,0,0],"sum_hessian":[8.9748E4,6.4166E4,2.5582E4,5.1315E4,1.2851E4,1.2833E4,1.2749E4,3.844E4,1.2875E4,2.5622E4,1.2818E4,1.2832E4,1.279E4],"tree_param":{"num_deleted":"0","num_feature":"79","num_nodes":"13","size_leaf_vector":"1"}},{"base_weights":[-1.472391E-4,-5.6948845E-4,9.1718667E-4,-4.7900216E-4,-4.6539208E-5,4.8791157E-5,4.292759E-5,-2.0848687E-5,-3.3269684E-5],"categories":[],"categories_nodes":[],"categories_segments":[],"categories_sizes":[],"default_left":[0,0,0,0,0,0,0,0,0],"id":100,"left_children":[1,3,5,7,-1,-1,-1,-1,-1],"loss_changes":[4.0297136E-2,2.0981748E-3,8.671358E-5,5.932711E-4,0E0,0E0,0E0,0E0,0E0],"parents":[2147483647,0,0,1,1,2,2,3,3],"right_children":[2,4,6,8,-1,-1,-1,-1,-1],"split_conditions":[1E0,1E0,1E0,1E0,-4.6539208E-5,4.8791157E-5,4.292759E-5,-2.0848687E-5,-3.3269684E-5],"split_indices":[55,75,60,63,0,0,0,0,0],"split_type":[0,0,0,0,0,0,0,0,0],"sum_hessian":[8.9656E4,6.4192E4,2.5464E4,5.1337E4,1.2855E4,1.2724E4,1.274E4,3.8521E4,1.2816E4],"tree_param":{"num_deleted":"0","num_feature":"79","num_nodes":"9","size_leaf_vector":"1"}},{"base_weights":[7.144417E-5,-4.6979572E-4,1.4240235E-3,-3.1478002E-4,-5.472182E-5,5.492921E-5,8.746252E-5,-1.9328752E-4,-3.386166E-5,3.0546315E-5,-3.2077613E-5,2.6608477E-5,-2.3452396E-5],"categories":[],"categories_nodes":[],"categories_segments":[],"categories_sizes":[],"default_left":[0,0,0,0,0,0,0,0,0,0,0,0,0],"id":101,"left_children":[1,3,5,7,-1,-1,-1,9,-1,11,-1,-1,-1],"loss_changes":[6.56344E-2,6.199914E-3,2.7100556E-3,2.2590142E-3,0E0,0E0,0E0,3.8554622E-3,0E0,